{"format_version": 2, "hidden_size": 128, "learning_rate": 0.001, "exploration": 0.11411039100999272, "min_exploration": 0.02, "exploration_decay": 0.995, "discount": 0.95, "games_total": 7, "ai_wins": 2, "user_wins": 2, "draws": 3, "model_state": {"fc1.weight": [[-0.48408034443855286, -0.27132731676101685, -0.46230974793434143, -0.09163246303796768, 0.17146539688110352, -0.6762746572494507, 0.02165280282497406, 0.3133200407028198, -0.11156826466321945], [-0.42273297905921936, 0.23741932213306427, 0.23798784613609314, 0.7132940888404846, 0.5024288296699524, 0.09759984165430069, 0.7631473541259766, 0.07503306865692139, 0.03570084646344185], [0.1079743281006813, -0.16272534430027008, -0.42073366045951843, 0.6024271249771118, -0.18323945999145508, -0.46243974566459656, 0.576630175113678, -0.04897473379969597, 0.23134934902191162], [-0.10596746951341629, 0.7013453245162964, -0.2485148161649704, 0.7597044110298157, -0.0749453455209732, -0.21648027002811432, 0.42694664001464844, 0.5838976502418518, -0.03194549307227135], [-0.48191574215888977, -0.9095260500907898, -0.12307772785425186, 0.2024402767419815, -0.39050647616386414, 0.5794740915298462, -0.4278528392314911, -0.13255168497562408, 0.637050449848175], [-0.6035018563270569, 0.1564083695411682, -0.7073338031768799, 0.3169344663619995, 0.367560476064682, -0.08924078196287155, -0.8314636945724487, -1.0673871040344238, 0.0928022488951683], [0.03330380469560623, -0.7221908569335938, 0.2071046382188797, 0.04683103784918785, -0.3198346793651581, -0.16373729705810547, -0.22661255300045013, -0.5305436253547668, -0.1289500743150711], [-0.07437795400619507, 0.45231547951698303, 0.33971965312957764, 0.27487048506736755, 0.06437224894762039, -0.485323429107666, -1.1766358613967896, 0.5876897573471069, 0.16466304659843445], [-0.06341704726219177, 0.14349770545959473, -0.022460808977484703, -0.1998751014471054, 0.007002988364547491, -0.6805039644241333, 0.6297845244407654, -0.910038948059082, -0.3953034579753876], [-0.18386417627334595, -0.21418562531471252, -0.20341511070728302, 0.2880856990814209, -0.3215639889240265, 0.017336668446660042, 0.3772165775299072, 0.24456600844860077, -0.6778439283370972], [-1.068638563156128, -0.3281411826610565, 0.37434476613998413, 0.2806988060474396, -0.5002986788749695, 0.04181588813662529, -0.31156542897224426, -0.0696837529540062, 0.31371456384658813], [0.16568902134895325, -0.8021753430366516, -0.27331194281578064, -0.10465174913406372, -0.7334198355674744, 0.46313944458961487, 0.13352729380130768, 0.3205327093601227, 0.32619965076446533], [0.2801056504249573, 0.1429411768913269, -0.208393394947052, 0.15048499405384064, 0.11072366684675217, -0.07728134840726852, 0.32352110743522644, -0.5726638436317444, -0.26150742173194885], [-1.0086637735366821, 0.2889796495437622, -0.27071747183799744, -0.7327802181243896, 0.22346943616867065, 0.3751300871372223, 0.4544547200202942, 0.0868520438671112, -0.06607625633478165], [-0.31552624702453613, -0.441975474357605, -0.01366443745791912, 0.18036004900932312, -0.6602213978767395, 0.6201258897781372, 0.23894961178302765, -0.9075080752372742, -0.20806102454662323], [0.16567952930927277, -0.3906804621219635, -0.07133758068084717, -0.23801247775554657, 0.8014301657676697, 0.020011985674500465, -0.23475533723831177, 0.29388228058815, 0.9364942312240601], [-0.274037629365921, 0.9834639430046082, 0.4043112099170685, 0.12255886942148209, 0.08961693197488785, -0.5598312020301819, 0.021819116547703743, -0.3130718469619751, -0.5501750707626343], [0.8305671215057373, 0.009823741391301155, -0.7890002131462097, -0.05177304521203041, 0.12096484750509262, 0.40340909361839294, -0.5856153964996338, -0.4262217879295349, 0.11334992200136185], [0.14787976443767548, -0.066067174077034, 0.42743784189224243, -0.542834997177124, -0.008513686247169971, -0.032557304948568344, 0.24754147231578827, 0.35207653045654297, 0.18561023473739624], [-0.15572819113731384, -0.26417410373687744, -0.31262972950935364, 0.15525227785110474, -0.008003408089280128, 0.03574180230498314, -0.17612586915493011, 0.949785590171814, 0.3304583728313446], [0.2919268012046814, -0.3804164230823517, -0.7591440081596375, 0.29685178399086, -0.205635666847229, -0.5023193359375, -0.39264142513275146, 0.7474380731582642, 1.1476694345474243], [-0.30335479974746704, -0.27112093567848206, 0.6077679395675659, -0.1785343438386917, -0.5444619059562683, 0.13685142993927002, -0.7414563894271851, -0.8069556951522827, 0.2928076386451721], [0.6341560482978821, 0.15603335201740265, -0.9877597689628601, 0.7769811153411865, -0.1379314363002777, -0.3889293670654297, -0.5210660099983215, -0.24327613413333893, -0.16816967725753784], [0.31255435943603516, -1.1240429878234863, -0.5327697992324829, 0.2658650279045105, 0.8560347557067871, -0.4429737329483032, 0.068447045981884, 0.11271411180496216, 0.19154687225818634], [-0.21362487971782684, -0.05387316271662712, 0.43464481830596924, -0.17219826579093933, 0.297786146402359, -0.13799454271793365, -0.6978250741958618, 0.4524136781692505, 0.695334255695343], [0.30329635739326477, 0.029904915019869804, -0.360300749540329, -0.23873190581798553, -0.5710803866386414, 0.8341642618179321, 0.5104189515113831, -0.41867196559906006, 0.407009482383728], [0.5619479417800903, -0.5358536839485168, 0.15443237125873566, -0.90731281042099, 0.5448344349861145, 0.46905025839805603, 0.06487714499235153, 0.15326955914497375, -0.1850418746471405], [0.37727728486061096, -0.45744436979293823, -0.486381471157074, -0.7172509431838989, 0.2017609030008316, -0.1807568073272705, -0.119282566010952, 0.011724351905286312, 0.11210665851831436], [-0.034870803356170654, 0.5169127583503723, 0.33010926842689514, -0.18285557627677917, 0.36311209201812744, 0.6035366058349609, 1.0097540616989136, 0.5137873888015747, 0.4541897475719452], [0.24292781949043274, 0.18319447338581085, 0.6966838240623474, 0.21205644309520721, 0.41979333758354187, 0.17415811121463776, -0.2590748071670532, 0.5057823061943054, 0.009632154367864132], [-0.15022441744804382, -0.8561976552009583, -0.5595716834068298, 0.36387899518013, -0.04466802254319191, 0.4680180251598358, -0.13019080460071564, 0.5072086453437805, -0.3730446398258209], [-0.30226701498031616, 0.3696029782295227, 0.3188648223876953, -0.21426859498023987, -0.2706480920314789, 0.1274418979883194, 0.3759329915046692, 0.1626545935869217, -1.084238886833191], [-0.03270268812775612, -0.19096961617469788, 0.26311901211738586, -0.3841421604156494, -0.2758619487285614, -0.8499242067337036, 0.27092960476875305, -0.5099728107452393, -0.0012745342683047056], [0.12299594283103943, -0.08324140310287476, 0.0596226342022419, 0.19270969927310944, 1.0847326517105103, 0.3669528067111969, -0.10031227767467499, -0.5911047458648682, -0.32324743270874023], [-0.14673437178134918, 0.6707350015640259, 0.05686308443546295, 0.6335008144378662, 0.5511071681976318, 0.034162987023591995, -0.2820972204208374, -0.29131725430488586, -0.9727970957756042], [0.34144917130470276, -0.196979820728302, -0.9807972311973572, 0.5819271206855774, -0.31911495327949524, -0.5054467916488647, 0.6708637475967407, -0.4294922649860382, 0.02648867666721344], [0.6569644212722778, -0.9215155243873596, -0.33947253227233887, 0.24793101847171783, -0.3971540927886963, -0.7618326544761658, 0.6009134650230408, 0.15513908863067627, -0.25428497791290283], [0.17701323330402374, 0.20453135669231415, -0.4008766710758209, -0.1930745542049408, -0.19361738860607147, 0.32757246494293213, 0.5360466837882996, -0.024589408189058304, 0.44111931324005127], [-0.577526330947876, -1.058540940284729, -0.14102394878864288, 0.23901872336864471, 0.37305858731269836, 0.9590012431144714, -0.5340745449066162, -0.31442758440971375, -0.29649221897125244], [-0.14546459913253784, 0.12025810033082962, 0.016883477568626404, 0.7635995149612427, -0.2428208440542221, -0.6175659894943237, -0.14487062394618988, 1.19158136844635, -0.7779008746147156], [0.15170983970165253, -0.010906467214226723, 0.9749332070350647, -0.39421725273132324, 0.7221261262893677, -0.6636883616447449, 0.2765311300754547, 0.5385276675224304, 0.8075052499771118], [0.02037961222231388, -0.1945914328098297, -0.4944531321525574, 0.14728456735610962, -0.12736281752586365, 0.4698515832424164, -0.5969651937484741, 0.8232289552688599, 0.4219002425670624], [0.6196775436401367, 0.37419214844703674, 0.8637807965278625, 0.3009376525878906, -0.1082061231136322, -0.704283595085144, -0.9247398376464844, 0.5658146739006042, -0.5663525462150574], [-0.13697992265224457, 0.1061255931854248, -0.3799723982810974, -0.27268722653388977, 0.452640175819397, -0.12846635282039642, -0.11121690273284912, 0.06602896749973297, -0.5452486872673035], [-0.9587440490722656, 0.13867618143558502, -0.5121800899505615, 0.26567184925079346, -0.1779220700263977, -0.04934810847043991, 0.20614315569400787, 0.5292484164237976, 0.5142073631286621], [0.2520272731781006, -0.3231368362903595, -0.33763396739959717, 0.32801350951194763, -0.4938250780105591, 0.2661013603210449, 0.39641135931015015, 0.14297212660312653, 0.43864327669143677], [0.7539627552032471, -0.07594079524278641, 1.0369218587875366, 0.19786670804023743, -0.5667649507522583, 0.3944360911846161, 0.11853015422821045, 0.45482727885246277, 0.41853660345077515], [-0.07000290602445602, -0.01121094822883606, -0.6854733228683472, -0.6571086645126343, 0.7494428157806396, 0.2551363706588745, 0.17141444981098175, -0.020061900839209557, 0.6942189931869507], [-0.4781669080257416, -0.1657968908548355, 0.595715343952179, -0.06429952383041382, 0.4609985053539276, 0.43468666076660156, 1.2073134183883667, 0.47961530089378357, 0.2964822053909302], [0.45645901560783386, 0.5978041887283325, 0.6633594632148743, -0.5374128818511963, 0.19306164979934692, -0.43800610303878784, -0.14621639251708984, -0.4231981635093689, 1.002039909362793], [0.043919820338487625, 0.319488525390625, -0.22141626477241516, 0.050389364361763, -0.5085580945014954, 0.2419174611568451, -0.21810036897659302, 0.29723772406578064, -0.07079054415225983], [0.3246496915817261, -0.5487425923347473, 0.30253633856773376, -0.28010645508766174, -0.4889490306377411, -0.24709713459014893, 0.03431238979101181, 0.48854711651802063, 0.4520185589790344], [-1.2078746557235718, -0.16633780300617218, 0.4240821301937103, -0.3224104642868042, -0.16164842247962952, -0.12156195938587189, 0.05778908729553223, 0.5823951363563538, 0.42068320512771606], [-0.5532944798469543, -0.25621816515922546, -0.17575137317180634, -0.40320298075675964, -0.3473776578903198, 0.14099346101284027, -0.16871599853038788, -0.42139872908592224, -0.38341519236564636], [0.6512552499771118, 1.0948874950408936, -0.34989187121391296, 0.24508117139339447, 0.9133552312850952, 0.34520483016967773, -0.19264613091945648, 0.1667226403951645, 0.25816455483436584], [0.27141016721725464, -0.47957584261894226, -0.45461681485176086, 0.19839422404766083, 0.38226208090782166, 0.13636209070682526, 0.0020692322868853807, 0.09408862143754959, -0.030308453366160393], [0.1620853990316391, -0.39588141441345215, -0.13182541728019714, 0.273640513420105, 0.10379572957754135, -0.6717774271965027, 0.2362862527370453, -0.24084791541099548, -0.18239593505859375], [-0.31205877661705017, 0.43385547399520874, 0.3829958438873291, 0.1489625722169876, 0.011848192662000656, 0.9182091355323792, -0.045458197593688965, 0.5051116347312927, -0.6201772689819336], [-0.05606332793831825, 0.4605889618396759, 0.31929364800453186, -0.193033367395401, 0.1652982234954834, -0.24866802990436554, 0.42596906423568726, 0.08057914674282074, -0.06629883497953415], [-0.38408926129341125, 1.4102669954299927, 0.2596798539161682, 0.578953742980957, 0.1758822649717331, -0.5591821074485779, 0.8291464447975159, -0.11335856467485428, -0.3014405071735382], [-0.25886860489845276, -0.5996497869491577, 0.5344643592834473, 0.36909374594688416, -0.47597214579582214, -0.2190653532743454, 0.2137490063905716, -0.006473675835877657, 0.3587286174297333], [-0.07288412004709244, -0.004318715538829565, -0.33811864256858826, -0.1596389263868332, -0.6961078643798828, -0.3657923936843872, 0.7066810727119446, -0.294203519821167, 0.8204457759857178], [-0.45000237226486206, -0.3250550925731659, 0.17859718203544617, 0.5213999152183533, 0.006531099788844585, -0.48037847876548767, 0.3997076153755188, -0.6962456703186035, 0.2131241261959076], [0.1216164082288742, -0.45439600944519043, 0.6312011480331421, -0.46693485975265503, 0.35788199305534363, 0.05569835379719734, -0.1415373533964157, -0.5333938002586365, 0.07906485348939896], [0.4198016822338104, -0.8093670010566711, 0.07337886095046997, -0.6594079732894897, -0.0889328122138977, -0.114279605448246, -0.04135780408978462, -0.041959717869758606, 1.16220223903656], [0.7239270806312561, 0.23252275586128235, -0.1588469296693802, -0.39642027020454407, -0.39609822630882263, 0.20782768726348877, -0.10442081838846207, -0.43239641189575195, 0.6886410117149353], [0.06668421626091003, -0.37195295095443726, 0.4557849168777466, 0.09571901708841324, -0.5722454190254211, -0.08477648347616196, 0.609351396560669, 0.24024119973182678, 0.15457992255687714], [-0.4505447447299957, -0.1896873414516449, -0.3789142966270447, -0.06615499407052994, -1.0714906454086304, 0.4105437397956848, -0.7163968086242676, -0.5678431391716003, -0.04537827521562576], [-0.08946998417377472, -0.43021926283836365, 0.548202395439148, -0.8790045380592346, -0.6654821038246155, 0.5650559663772583, -0.17919935286045074, 0.35570231080055237, -0.22567498683929443], [-0.1075979694724083, -0.9865840077400208, -0.5034252405166626, -0.009126394987106323, -0.37902146577835083, 0.41267630457878113, 0.12858520448207855, -0.0809129849076271, 0.3308663070201874], [0.4090670645236969, -0.5425743460655212, -0.7800455093383789, 0.0505821667611599, -0.012067954055964947, -0.5401855707168579, 0.42209771275520325, -0.11401546001434326, 0.722959578037262], [0.4931753873825073, 0.1740780472755432, -0.13976030051708221, 0.5888296961784363, -0.9127136468887329, -0.30986925959587097, 0.8439502716064453, 0.42440471053123474, -0.13620930910110474], [0.8419297933578491, -0.1826486438512802, -0.6287333369255066, 1.0847419500350952, -0.21186397969722748, 0.5586068034172058, 0.5302264094352722, 0.6746876239776611, 0.30737635493278503], [0.42138826847076416, -0.22858072817325592, 0.4073438048362732, -0.3110853433609009, 0.23674190044403076, -1.1414787769317627, 1.0567493438720703, -0.9099611639976501, 0.23198233544826508], [-0.2158595770597458, 0.32106879353523254, -0.5922444462776184, 0.4271867275238037, -0.8464691042900085, 0.11165071278810501, 0.6424832344055176, 0.8321762084960938, 0.035938844084739685], [0.5699170231819153, -0.14490920305252075, 0.4776499569416046, 0.11342264711856842, -0.3036109507083893, -1.0186619758605957, -0.10540110617876053, 0.574601948261261, 0.5297473073005676], [-0.25597915053367615, 0.48266080021858215, 0.39229443669319153, -0.5209580659866333, -0.7569440007209778, -0.06442256271839142, 1.3338472843170166, 0.8668200373649597, -0.48505690693855286], [-0.5427690148353577, 0.12869232892990112, 0.26984524726867676, 0.1875920295715332, 0.5304809808731079, -0.7083633542060852, 0.07150732725858688, 0.1688779592514038, -0.08947054296731949], [-0.17665906250476837, 0.8086858987808228, -0.8864517211914062, -0.37402862310409546, 0.30015408992767334, -1.2583329677581787, 0.059990860521793365, -0.09071721881628036, -0.2075815200805664], [-0.12992848455905914, 0.1711324155330658, -0.9108726382255554, -0.12559060752391815, -0.5802313089370728, -0.08176860213279724, -0.8435564637184143, -0.10495779663324356, 0.16653035581111908], [0.44238391518592834, -0.26377272605895996, -0.1278911828994751, -0.24181564152240753, -0.9943386316299438, -0.12057765573263168, -0.21887408196926117, -0.17393416166305542, -0.24918295443058014], [-0.9238688945770264, -0.7000885009765625, 0.38433149456977844, -0.4511753022670746, -0.7788747549057007, -0.19883966445922852, 0.027681441977620125, 0.3807775676250458, 0.41518890857696533], [0.8853438496589661, 0.11373079568147659, -0.496847540140152, -0.4251243472099304, 0.655200183391571, 0.4019480049610138, 0.19803956151008606, 0.3972439169883728, -0.6071653366088867], [0.23434461653232574, -0.7799354195594788, 0.08598600327968597, -0.6401768922805786, 0.22503869235515594, -0.6762834787368774, -0.03791303560137749, -0.13569429516792297, -0.24561664462089539], [0.9587804079055786, -0.3669167160987854, -0.1928350329399109, 0.12493553012609482, -0.739155113697052, -0.7292661666870117, 0.3767939507961273, 0.5841090679168701, -0.6424184441566467], [-0.056854624301195145, -0.26607757806777954, -0.6320269703865051, 0.35782164335250854, 0.04400870203971863, 1.1878490447998047, -0.29137298464775085, -0.24355024099349976, 0.3266165852546692], [-0.45618829131126404, 0.31156352162361145, -1.0106427669525146, 0.24790027737617493, 0.013907775282859802, -0.3953317105770111, 0.26064613461494446, -0.3779187798500061, -0.2898726165294647], [0.8965886235237122, -0.20514504611492157, -0.19678734242916107, 0.3849402666091919, 0.20170189440250397, 0.5673612356185913, 0.48341479897499084, 0.3216976225376129, -0.5232388973236084], [0.2781924307346344, -0.3938432037830353, -0.39819207787513733, -0.44460728764533997, 0.5659590363502502, -0.10935579985380173, 0.3240702748298645, -0.3290206491947174, -0.37271422147750854], [-0.2783660888671875, -0.3402934670448303, -0.21822866797447205, -0.22875745594501495, 0.0324263833463192, -0.7883465886116028, 0.07321987301111221, -0.00010442570055602118, -0.6362249851226807], [0.41795051097869873, -0.2837514877319336, -0.8349602222442627, 0.19938012957572937, -0.09698987752199173, 0.2615354657173157, 0.12161888927221298, 0.045709121972322464, -0.23529791831970215], [-0.3420937955379486, -0.4585491418838501, 0.43840691447257996, 0.3142716586589813, 0.1490595042705536, 0.8334177732467651, -0.07995246350765228, 0.19019688665866852, -0.7105278968811035], [0.39036762714385986, 0.27098894119262695, -0.4328548312187195, 0.2637295722961426, 0.0332515649497509, -1.0439801216125488, 0.43636125326156616, 0.6752467751502991, -0.18726930022239685], [0.10635505616664886, -0.0721043050289154, -0.41162022948265076, -0.17508432269096375, 0.17486663162708282, 0.04096206650137901, 0.36031144857406616, -0.1408475637435913, -0.10111250728368759], [0.47127217054367065, -0.18073225021362305, 0.2688766419887543, 0.056728482246398926, 0.34980908036231995, -0.21967589855194092, -0.27474287152290344, 1.261044979095459, -0.3818090856075287], [-0.5828737020492554, -0.37573885917663574, -0.02252231165766716, -0.001936672837473452, 1.0941590070724487, 0.6115959882736206, -0.564643383026123, -0.11254996061325073, 0.40602630376815796], [0.11795641481876373, 0.8993234038352966, -0.21192651987075806, -0.13665078580379486, -0.7918470501899719, -0.305414080619812, 0.997507631778717, 0.11105360835790634, 0.2537936270236969], [0.250487357378006, 0.08190404623746872, 0.5580596327781677, -0.5405970811843872, 0.2906007766723633, 0.48609209060668945, 0.12633909285068512, -0.19202563166618347, -0.5910159945487976], [1.230163812637329, 1.0268158912658691, -0.5014923810958862, 0.0581434927880764, 0.5002769827842712, 0.4585352838039398, 0.10506605356931686, 0.7316400408744812, 0.7810353636741638], [0.14824669063091278, 0.42478156089782715, -0.8692396283149719, 0.8238946199417114, 0.5360081791877747, 0.16911913454532623, -0.021667666733264923, -0.23841962218284607, -0.07605618238449097], [0.5865854024887085, -0.33512523770332336, -0.6674824953079224, 0.3541438579559326, -0.15562424063682556, 0.20517012476921082, -0.10053636878728867, -0.1731397658586502, -0.764055073261261], [0.24950170516967773, -0.2841971516609192, -0.24827060103416443, 0.2436448484659195, 0.36547526717185974, 0.010848704725503922, -0.298058420419693, 0.6622787117958069, -0.5817301273345947], [0.55068039894104, 0.615684986114502, 0.446650892496109, -0.5389269590377808, 0.4244838356971741, -0.03487560525536537, -0.23573513329029083, 0.6180748343467712, -0.3415336608886719], [-1.004583477973938, -0.4762813448905945, -0.05586892366409302, 0.08940742164850235, 1.0934306383132935, 0.5485939979553223, 0.22372175753116608, 0.499266654253006, -0.6704933643341064], [0.3575911521911621, 0.2425736039876938, 0.6980783939361572, 0.1813112497329712, -0.8817914724349976, -0.30897095799446106, -0.0932186171412468, 0.4923911988735199, -0.1748519241809845], [-0.2862200438976288, 0.2988046407699585, -0.2884538471698761, 0.23985299468040466, -0.591000497341156, -0.04494386911392212, -0.20692119002342224, -0.4474290907382965, 0.3840526342391968], [-0.08568043261766434, 0.34434396028518677, -0.5291767716407776, -0.014318233355879784, 1.2233847379684448, 0.464326947927475, 0.3096620738506317, -0.40329670906066895, -0.44626691937446594], [0.3194684088230133, 0.5662628412246704, -0.11638492345809937, 0.3720652461051941, 0.05315360054373741, 0.19825583696365356, 0.39204925298690796, 0.6291654109954834, -0.9937489628791809], [0.10272392630577087, 0.33113640546798706, 0.05277315527200699, -0.08710167557001114, -0.7184594869613647, 0.6304079294204712, -1.1198731660842896, -0.3711594045162201, -0.317759245634079], [0.16243277490139008, -0.1716558039188385, -0.011066384613513947, -0.17679348587989807, 0.23521991074085236, -0.17868471145629883, -0.3642677366733551, 0.35566091537475586, -0.49563848972320557], [0.5752293467521667, -0.00035424521774984896, 0.8238314986228943, 0.32777470350265503, 0.6032192707061768, 0.4090263545513153, -0.33732083439826965, 0.9619228839874268, -0.3220423758029938], [-0.16493141651153564, 0.5026881098747253, -0.8622230291366577, 0.04617905244231224, -0.338284432888031, -0.09463333338499069, -0.341867059469223, -0.10748005658388138, -0.6233433485031128], [-0.23145468533039093, -0.13011877238750458, 0.5991530418395996, -0.15934720635414124, 0.22683152556419373, -0.0021072854287922382, -0.04390231519937515, 0.845098078250885, -0.5026950836181641], [0.8563312888145447, -0.38843733072280884, -0.14458461105823517, -0.7331666946411133, 0.08660657703876495, 0.14017987251281738, -0.015336457639932632, -0.46340447664260864, -0.1108921691775322], [0.6975699663162231, 0.6183854937553406, -0.4398804306983948, -0.2710203230381012, 0.00504491338506341, 0.1633991301059723, 0.26613810658454895, -0.2511461675167084, 0.0003340240800753236], [-0.5537722706794739, 0.031867027282714844, 0.9410561323165894, 0.3594190180301666, 0.42973974347114563, 0.12020355463027954, -0.40440869331359863, -0.15572990477085114, -0.7099022269248962], [-0.33365702629089355, -0.4952266812324524, -0.3705247938632965, -0.45806577801704407, 0.5412587523460388, -0.07211698591709137, -0.04808816313743591, 0.3212597072124481, 0.5007357597351074], [0.1577172428369522, 0.5939714312553406, 0.24708013236522675, 0.34133827686309814, 0.47011852264404297, -0.9545677900314331, -0.9032072424888611, -0.2238379865884781, -0.16879773139953613], [0.8100542426109314, 0.057280588895082474, -0.05029052868485451, -0.13330698013305664, -0.38573139905929565, -0.1360337883234024, 0.4127803444862366, -0.06637439876794815, -0.12895719707012177], [0.17161685228347778, -0.945105254650116, -0.10615473985671997, -0.028323547914624214, 0.5991781949996948, 0.28172075748443604, 0.5362837910652161, -0.12439870089292526, -0.1761545091867447], [-0.3750438988208771, -0.470427542924881, 0.4107576608657837, -0.207412987947464, -0.39400243759155273, -0.09505245834589005, -0.36815178394317627, 0.3225720524787903, 0.1917574405670166], [0.35306838154792786, 0.3858300745487213, -0.057025082409381866, 0.14294645190238953, -0.23640252649784088, 0.3260722756385803, 0.6791455745697021, 0.8748728632926941, 0.22599250078201294], [0.30532169342041016, 0.017150187864899635, -0.04430964216589928, 0.05770829692482948, 0.527875542640686, 0.12217778712511063, 0.39291900396347046, -0.0968063473701477, 0.059854768216609955], [0.5153603553771973, 0.5762854814529419, -0.34718456864356995, -0.22502997517585754, 0.3351319432258606, 0.47219544649124146, -0.660023033618927, -0.03167320787906647, -0.18067149817943573], [0.16807134449481964, 0.2929369807243347, 0.3048739731311798, -0.12938696146011353, 0.4219542443752289, -0.5492180585861206, 0.43324849009513855, 0.567765474319458, -0.48470205068588257], [0.4820566475391388, -0.2735648453235626, 0.38013431429862976, 0.3729605972766876, -0.5085678696632385, -0.43877363204956055, -0.21747562289237976, 0.1119188591837883, -0.06363505870103836], [-0.38243407011032104, 0.28937652707099915, 0.08828385174274445, -0.29270175099372864, -0.4411049485206604, -0.32086512446403503, -0.12506961822509766, -0.0707254558801651, 0.5955367684364319], [-0.3868590295314789, 0.0033215407747775316, 0.16161005198955536, 0.6852641701698303, -0.015422705560922623, 0.6494066119194031, 0.9822239875793457, 0.14820358157157898, 0.3704013228416443]], "fc1.bias": [-0.017083069309592247, -0.0021952360402792692, -0.005249910056591034, 0.0591285303235054, 0.04766625910997391, -0.03922533616423607, -0.023975852876901627, -0.030521443113684654, -0.006680693943053484, 0.07537293434143066, -0.04840295761823654, -0.017895150929689407, -0.0500187911093235, -0.015242422930896282, -0.045710429549217224, 0.14394354820251465, 0.016737377271056175, 0.005657061003148556, 0.000720235169865191, 0.02591993287205696, 0.0008107174653559923, 0.08869535475969315, -0.017539551481604576, -0.08924517780542374, 0.02421322464942932, 0.010297613218426704, -0.01210365816950798, -0.05461476370692253, 0.11264318227767944, -0.003225090214982629, 0.041127175092697144, -0.0026983029674738646, 0.007797584403306246, -0.10042443871498108, -0.019452214241027832, -0.0173430684953928, 0.0025676614604890347, -0.026502981781959534, -0.08955682069063187, -0.03502912074327469, 0.15045328438282013, -0.03817044943571091, -0.1182747408747673, -0.060498181730508804, -0.0113564133644104, 0.007234637159854174, 0.04388710483908653, 0.08190447092056274, 0.057407304644584656, -0.029596276581287384, -0.030684342607855797, 0.03212361037731171, -0.028068263083696365, 0.04170586168766022, -0.04254431650042534, 0.02151072956621647, -0.042036108672618866, -0.06837446987628937, 0.03876650333404541, 0.049448732286691666, -0.0062795365229249, -0.08162575960159302, 0.0006603754009120166, -0.10151368379592896, 0.08478996157646179, 0.00853318814188242, -0.03162872791290283, -0.0035778472665697336, -0.08528037369251251, 0.013295297510921955, -0.03324691206216812, -0.01349011342972517, 0.015940485522150993, 0.06295845657587051, 0.020960910245776176, -0.014476839452981949, -0.0976378470659256, 0.031697675585746765, -0.008706302382051945, -0.05057390034198761, 0.021953122690320015, 0.06416542828083038, -0.027515292167663574, 0.026306021958589554, -0.06457745283842087, -0.021508030593395233, -0.04349912703037262, 0.027165528386831284, 0.08288492262363434, -0.07527612149715424, 0.060198213905096054, 0.001638001762330532, 0.023307813331484795, 0.02635280042886734, 0.026711352169513702, -0.05095397308468819, 0.06032733619213104, -0.025487540289759636, -0.06860392540693283, -0.051478542387485504, 0.11725224554538727, 0.03443339839577675, 0.08058080077171326, 0.07440964132547379, 0.026998210698366165, 0.04648470878601074, -0.13570518791675568, 0.006918196566402912, -0.055622003972530365, 0.006384474225342274, -0.055094629526138306, 0.03036388009786606, -0.07068246603012085, 0.07670100778341293, 4.556820204015821e-05, -0.0914483591914177, -0.04518326371908188, -0.007897145114839077, -0.0023103884886950254, -0.06262072175741196, 0.002063574967905879, -0.004626474343240261, 0.009260032325983047, 0.09067768603563309, -0.04710907116532326, -0.03518564626574516, 0.034752942621707916, -0.016499551013112068], "fc2.weight": [[0.15956267714500427, 0.0004899717168882489, 0.07851903885602951, -0.00046044864575378597, 0.021974025294184685, -0.05223874747753143, 0.06687580794095993, 0.08059381693601608, -4.601648834068328e-05, -0.11465539038181305, -0.03123198077082634, 0.04923192039132118, 0.027309583500027657, 0.13260456919670105, -0.08074189722537994, -0.0382508784532547, 0.011960145086050034, 0.10183756798505783, 0.11289218068122864, -0.05114167556166649, -0.11335187405347824, -0.04190211370587349, 0.07279953360557556, 0.037394315004348755, -0.09262926131486893, 0.2176114171743393, -0.23989522457122803, -0.039248254150152206, 0.045607440173625946, 0.003671916900202632, 0.023157592862844467, -0.054394714534282684, 0.23473075032234192, -0.27414608001708984, -0.37607309222221375, -0.13457359373569489, -0.03391069918870926, 0.031337231397628784, -0.07016763091087341, -0.082355797290802, 0.0209481380879879, -0.08899577707052231, -0.1328059583902359, 0.0591646246612072, 0.08989021182060242, -0.20615391433238983, -0.06851010769605637, 0.07592842727899551, -0.002588450675830245, 0.017262529581785202, 0.09668607264757156, 0.1299370676279068, -0.012461778707802296, 0.012251024134457111, 0.11289280652999878, 0.1256713569164276, -0.08331263810396194, -0.10922536998987198, 0.05956955999135971, -0.10539770871400833, 0.016684316098690033, -0.21421842277050018, -0.1278708279132843, -0.06371422857046127, -0.07517208904027939, -0.15243300795555115, 0.19180689752101898, 0.06521004438400269, 0.10185926407575607, -0.07029739767313004, 0.12755902111530304, 0.04555148631334305, 0.061565011739730835, -0.17480604350566864, 0.024001779034733772, 0.14912310242652893, 0.025410033762454987, 0.00836564227938652, -0.035257115960121155, -0.020678864791989326, -0.15699391067028046, 0.1242946982383728, -0.026745744049549103, 0.14540952444076538, 0.030741684138774872, 0.15957804024219513, -0.08727316558361053, 0.06036267802119255, 0.2250939905643463, -0.050919804722070694, 0.11369927227497101, 0.0012525282800197601, 0.11338911205530167, 0.02781270071864128, 0.11440231651067734, -0.020657848566770554, 0.1372593343257904, 0.15520085394382477, 0.04917946457862854, -0.09073083102703094, 0.011349661275744438, -0.09771620482206345, 0.2652517259120941, -0.08602739870548248, -0.12004570662975311, -0.13632696866989136, -0.1071416363120079, -0.1317977011203766, 0.22573275864124298, -0.12359067797660828, 0.12598900496959686, -0.01615729369223118, -0.06560485810041428, -0.05043929070234299, -0.10018518567085266, 0.03191164880990982, 0.1315547227859497, -0.01903594844043255, 0.23551616072654724, 0.09535744786262512, 0.23099270462989807, 0.1538812220096588, 0.05085711553692818, 0.03172774985432625, 0.14707696437835693, 0.000320816325256601, -0.21308214962482452, 0.10796640068292618], [-0.09236829727888107, -0.07995547354221344, 0.015778403729200363, 0.040853068232536316, 0.0835903137922287, 0.10485835373401642, 0.31566739082336426, 0.16600802540779114, -0.11176104098558426, -0.035770632326602936, 0.02901112660765648, 0.170675590634346, 0.0015845594462007284, 0.030414843931794167, -0.11406207084655762, 0.0296111311763525, -0.16755032539367676, -0.0615185983479023, -0.00045506373862735927, -0.0906238928437233, 0.062389593571424484, -0.18227417767047882, -0.08956900238990784, -0.09101822227239609, -0.09930547326803207, -0.02788412943482399, 0.06623139977455139, -0.143300399184227, -0.05334696173667908, -0.011447860859334469, 0.0056013381108641624, 0.048857588320970535, 0.04630802199244499, -0.13252057135105133, 0.020677562803030014, -0.002397929783910513, 0.037400152534246445, -0.09149035811424255, -0.26486992835998535, 0.1339617371559143, -0.04067562147974968, 0.011961540207266808, -0.03977551683783531, -0.06209570914506912, -0.10235422104597092, 0.024342980235815048, 0.06326339393854141, 0.20318444073200226, 0.20841851830482483, -0.060922522097826004, -0.12093771249055862, -0.0513741597533226, 0.0010896924650296569, 0.19542989134788513, -0.21879784762859344, -0.2897556722164154, 0.05962914600968361, -0.030367538332939148, -0.015930036082863808, 0.02834564447402954, 0.03568558767437935, 0.0968407690525055, 0.3100128173828125, 0.11760557442903519, 0.12077470868825912, 0.27184396982192993, -0.25205039978027344, -0.18836554884910583, 0.19892190396785736, -0.06463746726512909, 0.006230664439499378, -0.08652370423078537, -0.3386490046977997, -0.11017805337905884, -0.2464016228914261, 0.10682167112827301, -0.16974776983261108, -0.061183471232652664, 0.12759163975715637, 0.1162593737244606, -0.0688868835568428, -0.06603676080703735, 0.08868736773729324, -0.011041567660868168, 0.0233949963003397, -0.23895369470119476, 0.020928939804434776, -0.1768224984407425, 0.14813488721847534, 0.14512546360492706, 0.10347559303045273, -0.08597198873758316, 0.01696997508406639, 0.06889605522155762, -0.037574607878923416, -0.03677517548203468, 0.21983136236667633, 0.1123681515455246, -0.22280853986740112, 0.05774527043104172, -0.07006380707025528, 0.18082298338413239, -0.02021038345992565, 0.11710015684366226, -0.13231849670410156, 0.047289229929447174, -0.02548995241522789, 0.017523029819130898, -0.1523151844739914, 0.05622248351573944, 0.13429021835327148, -0.03656963258981705, 0.26973196864128113, 0.03467094898223877, -0.12943430244922638, 0.10193736851215363, 0.07000638544559479, -0.15901675820350647, 0.12316367775201797, 0.1269792914390564, -0.1776384562253952, -0.068869449198246, 0.09053394943475723, 0.16356778144836426, -0.0970817431807518, 0.09686599671840668, 0.10780728608369827, -0.046656593680381775], [-0.36133164167404175, 0.017974935472011566, 0.025697702541947365, 0.004544680472463369, 0.09333375096321106, 0.0913405567407608, 0.010868841782212257, 0.04298415407538414, 0.0054346113465726376, 0.07214097678661346, -0.04587768763303757, 0.1747763305902481, 0.06430892646312714, 0.04290904477238655, -0.1412951499223709, -0.2582460641860962, -0.27965158224105835, -0.030808672308921814, -0.05554276332259178, 0.05115578696131706, 0.1823454052209854, -0.04301565885543823, 0.10535257309675217, 0.04526625946164131, -0.024448079988360405, -0.23046565055847168, -0.017521489411592484, 0.07420621067285538, -0.36367690563201904, -0.20726577937602997, 0.11043950170278549, 0.07350248098373413, -0.0679435059428215, -0.04062829539179802, -0.062457695603370667, 0.03264745697379112, 0.2778857946395874, -0.10408379882574081, -0.15979218482971191, -0.012329529970884323, -0.029280710965394974, -0.15568281710147858, -0.039099469780921936, -0.017673717811703682, 0.15391387045383453, 0.0494813546538353, 0.0997600182890892, -0.1260412186384201, 0.023963328450918198, 0.05381084978580475, 0.0026615229435265064, 0.15092651546001434, 0.18761152029037476, 0.028042705729603767, -0.30443087220191956, 0.06655453145503998, -0.3190647065639496, 0.11541678011417389, -0.13422180712223053, -0.08536778390407562, -0.01216823235154152, 0.07873986661434174, -0.040152594447135925, 0.06056099757552147, -0.06307502090930939, 0.016768289729952812, 0.028837338089942932, -0.06853404641151428, -0.13478027284145355, -0.0008937451639212668, -0.16349267959594727, -0.05400606617331505, 0.04272868111729622, -0.4602532982826233, 0.09114005416631699, 0.06673625856637955, 0.05789250507950783, -0.07937701046466827, 0.06019721180200577, -0.2040446549654007, 0.21820096671581268, 0.11423392593860626, -0.12579314410686493, 0.13815972208976746, 0.057124823331832886, -0.15788590908050537, 0.1321876049041748, -0.031499508768320084, -0.21030770242214203, 0.06675170361995697, -0.024272285401821136, -0.12655602395534515, 0.03415815532207489, -0.1668592095375061, 0.08807693421840668, 0.054378360509872437, -0.2926824390888214, -0.1412375420331955, -0.06528665125370026, -0.23707926273345947, 0.0969269797205925, 0.3291645646095276, -0.08603104948997498, -0.10053601861000061, -0.3277527391910553, 0.13624227046966553, -0.23651087284088135, 0.08708954602479935, -0.06332211941480637, -0.09745778143405914, 0.031087767332792282, 0.09481881558895111, -0.023924920707941055, 0.043398499488830566, -0.06004823371767998, 0.05526229366660118, -0.012774046510457993, 0.10762705653905869, 0.18725162744522095, -0.1137906163930893, -0.01687445119023323, 0.1417020559310913, 0.14152966439723969, -0.2479315996170044, -0.10222481191158295, 0.0351443774998188, 0.1228129118680954, -0.07510916143655777], [0.1147817075252533, -0.1404678076505661, 0.08238018304109573, -0.08126289397478104, 0.28498393297195435, 0.09870798140764236, 0.11020392924547195, 0.05997921898961067, -0.11064214259386063, -0.029414692893624306, 0.011731944046914577, -0.021074609830975533, 0.06994394958019257, -0.20069687068462372, 0.11976541578769684, -0.13024163246154785, 0.08416227251291275, 0.21703803539276123, 0.05711042881011963, -0.03694942966103554, -0.049167945981025696, -0.09206898510456085, -0.12776218354701996, 0.1152944415807724, -0.025307221338152885, 0.1299322545528412, 0.20666852593421936, -0.01116249430924654, -0.19881153106689453, -0.29887139797210693, 0.08751578629016876, 0.002260265639051795, 0.2501165568828583, 0.21169953048229218, 0.12596602737903595, 0.22964926064014435, 0.30605289340019226, -0.11312215775251389, 0.09031596034765244, -0.1795172095298767, 0.3524987995624542, 0.11473465710878372, 0.10254234820604324, -0.22510753571987152, -0.08847643435001373, -0.05774259939789772, -0.03245515748858452, -0.029040774330496788, 0.09879086911678314, 0.052267007529735565, -0.07958328723907471, -0.10627441108226776, 0.16083157062530518, 0.062091171741485596, -0.0803028866648674, 0.08234576880931854, 0.08118836581707001, -0.029341770336031914, -0.0436692014336586, -0.0972854346036911, -0.2639210522174835, 0.022837020456790924, 0.19436460733413696, -0.050030652433633804, 0.11885423958301544, 0.06625720113515854, 0.08623495697975159, -0.08958292007446289, -0.09173993766307831, -0.2503957152366638, -0.06698192656040192, 0.0484730564057827, -0.0854424312710762, -0.08652735501527786, -0.25188136100769043, 0.2279057651758194, 0.059310246258974075, 0.05637696012854576, -0.14900755882263184, -0.034522250294685364, -0.1327809989452362, -0.13127531111240387, 0.0887184664607048, -0.10124071687459946, 0.157762348651886, -0.0746845006942749, 0.13977354764938354, -0.07577911019325256, -0.03251462057232857, 0.038904666900634766, -0.1782759726047516, -0.1168881207704544, 0.09828491508960724, 0.2049580216407776, -0.17193572223186493, 0.07631820440292358, -0.09050681442022324, 0.26923495531082153, -0.10931738466024399, 0.04646822437644005, 0.12118657678365707, -0.17933279275894165, -0.12853677570819855, 0.14839468896389008, -0.3427087366580963, 0.01160059217363596, 0.007868876680731773, -0.17290160059928894, 0.15380747616291046, -0.12001264095306396, 0.13319987058639526, -0.08505060523748398, -0.03531993553042412, -0.20178388059139252, -0.006824958603829145, -0.0719410851597786, -0.19450272619724274, -0.054521650075912476, 0.1566479355096817, 0.04344744235277176, 0.008527386002242565, 0.12346060574054718, -0.1004503145813942, -0.09134639799594879, 0.1303333193063736, 0.019090667366981506, -0.12387535721063614, -0.151521235704422], [-0.10315249860286713, 0.023226402699947357, -0.1555386781692505, 0.322884202003479, -0.15434503555297852, -0.07268667221069336, -0.06242856755852699, -0.17837131023406982, 0.2507840394973755, 0.018157634884119034, -0.13376444578170776, -0.21904024481773376, -0.18129891157150269, 0.09759505093097687, -0.06242970749735832, -0.18711437284946442, -0.07742315530776978, -0.0014667701907455921, 0.18238183856010437, 0.1122150868177414, -0.06977120041847229, 0.0030362072866410017, 0.08317158371210098, 0.0814860537648201, -0.040721967816352844, 0.2005959004163742, -0.27350321412086487, 0.16815637052059174, -0.18045315146446228, -0.10566641390323639, 0.15640011429786682, 0.016630426049232483, -0.05258908495306969, 0.0462498739361763, -0.0890071913599968, -0.04238799586892128, -0.16377553343772888, -0.02518724463880062, -0.09906554222106934, -0.12608204782009125, -0.22822533547878265, -0.02979322522878647, 0.0752793624997139, -0.024540578946471214, -0.0031946790404617786, -0.03917719051241875, -0.05414630100131035, 0.062366556376218796, -0.2011411190032959, 0.05082760006189346, 0.2791571617126465, 0.06151193380355835, 0.03351633995771408, -0.03531012684106827, -0.09678468108177185, -0.04932773858308792, -0.09265295416116714, 0.0961078479886055, -0.02307520993053913, 0.16233058273792267, 0.1014891043305397, -0.2498624324798584, 0.04724014550447464, 0.08653151988983154, -0.1002546027302742, 0.06649550050497055, -0.006947688292711973, 0.1571134775876999, 0.24622033536434174, 0.019107799977064133, 0.08995285630226135, 0.037704892456531525, -0.07018573582172394, -0.14271022379398346, -0.07483822852373123, -0.001545085571706295, 0.10966011881828308, -0.07350847125053406, -0.17779754102230072, 0.17414449155330658, 0.0641854926943779, 0.03448303043842316, -0.017290376126766205, -0.200125589966774, 0.009131522849202156, 0.00637382548302412, 0.17580750584602356, -0.12913578748703003, -0.229025736451149, 0.04212464019656181, 0.12218086421489716, 0.08917362987995148, 0.2076687216758728, -0.1915145069360733, -0.1630474030971527, 0.10418029129505157, -0.19906608760356903, 0.11150339990854263, 0.0007241591229103506, 0.14552268385887146, -0.015360496006906033, 0.21369516849517822, -0.02210276946425438, 0.0948338583111763, -0.11093853414058685, 0.10224181413650513, -0.093714140355587, 0.0784006342291832, 0.06684572249650955, -0.021271253004670143, -0.032210417091846466, 0.03745901212096214, -0.035589076578617096, -0.23574534058570862, -0.10051217675209045, -0.010531232692301273, -0.06456875056028366, 0.1073581799864769, -0.06332693994045258, 0.0713876485824585, 0.013981197029352188, 0.14682923257350922, 0.014407982118427753, 0.02578544057905674, 0.06496281176805496, -0.03353748098015785, -0.07832054793834686, -0.046245839446783066], [-0.09063629806041718, -0.16028426587581635, -0.1257270872592926, -0.0172057393938303, -0.23488779366016388, 0.13707563281059265, -0.02303982712328434, -0.0743803158402443, -0.1294798105955124, -0.09349660575389862, 0.0007241564453579485, -0.02980056032538414, -0.0035705543123185635, -0.19394636154174805, 0.25964686274528503, 0.1704254001379013, 0.05215108394622803, 0.040804531425237656, 0.05474855750799179, 0.11732041835784912, -0.014806550927460194, 0.2284729927778244, 0.05481036752462387, 0.08267269283533096, 0.22922413051128387, 0.15317173302173615, 0.11297399550676346, 0.0958574190735817, 0.11439898610115051, -0.05741128325462341, 0.024598632007837296, -0.1274089217185974, 0.21857544779777527, 0.05151722580194473, -0.022845247760415077, 0.02757536992430687, 0.09013662487268448, -0.045148562639951706, 0.25694113969802856, 0.12757323682308197, -0.054650016129016876, -0.026868287473917007, -0.17678716778755188, -0.14293962717056274, 0.03154437616467476, -0.09827876091003418, 0.140597864985466, -0.20102261006832123, -0.05785471946001053, 0.0726594477891922, -0.17840582132339478, -0.18075411021709442, -0.007307758089154959, 0.07423529028892517, -0.05050674453377724, -0.03203970193862915, 0.08638551831245422, 0.017885297536849976, 0.2524631917476654, 0.024330686777830124, 0.17858701944351196, -0.06521708518266678, 0.04103031009435654, -0.09506580978631973, 0.4148494005203247, 0.20496314764022827, 0.16555237770080566, -0.32450148463249207, -0.09978216886520386, -0.017864175140857697, 0.1471521258354187, -0.09652422368526459, 0.052185554057359695, -0.21012431383132935, -0.21200689673423767, 0.14727520942687988, 0.02777016907930374, -0.0017152727814391255, 0.07489483803510666, 0.011445363983511925, -0.2695450484752655, -0.13936182856559753, 0.03955871984362602, -0.04313455522060394, 0.12324420362710953, 0.06150983273983002, 0.04783850163221359, -0.07671545445919037, 0.1348925232887268, -0.014282195828855038, -0.10221900045871735, -0.09151503443717957, 0.08463394641876221, 0.004440788645297289, 0.03731003403663635, 0.015228700824081898, -0.06186039373278618, 0.1621493697166443, -0.10169067978858948, 0.04440874978899956, 0.1382562816143036, -0.03349129855632782, 0.09584158658981323, 0.022828150540590286, 0.12132637947797775, 0.012250430881977081, 0.12324326485395432, 0.010982849635183811, -0.03378244489431381, -0.1412760615348816, -0.229930579662323, -0.18008391559123993, -0.05944012850522995, 0.11534776538610458, 0.11717645823955536, 0.2027202993631363, -0.17851312458515167, -0.2130168229341507, -0.14061397314071655, 0.07328583300113678, -0.1569775640964508, 0.05379195511341095, -0.007797662168741226, 0.07398159056901932, -0.09588265419006348, -0.06318090111017227, 0.07258117944002151, 0.0053263516165316105], [-0.09493574500083923, 0.019212080165743828, 0.012083005160093307, -0.11556757986545563, -0.026033205911517143, -0.05837279185652733, -0.0034803603775799274, -0.21751432120800018, -0.09148319065570831, 0.030705997720360756, 0.14683806896209717, 0.022921357303857803, 0.10078216344118118, 0.11822393536567688, 0.1626138836145401, -0.12685035169124603, -0.014483161270618439, -0.13960836827754974, -0.273570716381073, -0.10205444693565369, 0.09300628304481506, 0.28804948925971985, -0.06503703445196152, -0.1768731027841568, 0.03435740992426872, -0.05683636665344238, 0.15428301692008972, 0.07232269644737244, 0.1731964349746704, 0.07009918987751007, -0.19211529195308685, -0.0728946253657341, 0.06451888382434845, -0.030564628541469574, 0.09593953937292099, 0.036025892943143845, 0.05294337123632431, 0.27274948358535767, 0.010498829185962677, -0.12692198157310486, 0.020916227251291275, 0.105439193546772, -0.07032596319913864, 0.08267523348331451, 0.01886143907904625, -0.018455268815159798, 0.1498783677816391, 0.08594561368227005, 0.1491207629442215, 0.07856961339712143, 0.15695875883102417, -0.3023674488067627, -0.012734523043036461, 0.09386424720287323, 0.054634612053632736, -0.023732801899313927, -0.0547657273709774, 0.11935965716838837, -0.24257583916187286, 0.009355966933071613, -0.08960779756307602, 0.04502757638692856, -0.34236615896224976, -0.055225640535354614, -0.05091892182826996, 0.2621634900569916, 0.026928171515464783, -0.03958424925804138, 0.047531966120004654, 0.2167937308549881, -0.0981556698679924, -0.11892049014568329, -0.16957508027553558, 0.04614613577723503, -0.10578028857707977, -0.0012423626612871885, -0.12082526832818985, 0.04179142415523529, -0.04884684085845947, -0.04558609798550606, 0.08640088886022568, 0.05170290917158127, 0.07147703319787979, -0.06244294345378876, 0.12614072859287262, 0.02022848278284073, -0.032344985753297806, -0.060650553554296494, 0.08472767472267151, 0.08342289179563522, -0.15408562123775482, -0.11141414195299149, -0.2224770188331604, 0.04986083135008812, -0.17470358312129974, -0.1241941899061203, 0.07778480648994446, -0.08233731985092163, 0.20453670620918274, 0.11486313492059708, -0.07897798717021942, 0.0003595749440137297, 0.1808769404888153, 0.02444993518292904, -0.2731185555458069, -0.12416833639144897, -0.34108415246009827, 0.2259163111448288, -0.03785417601466179, -0.21676130592823029, -0.06796213984489441, 0.18445096909999847, 0.09689171612262726, 0.24922345578670502, -0.1748010516166687, -0.04932870715856552, -0.12617678940296173, 0.051424622535705566, 0.09906397014856339, -0.08653228729963303, 0.0045791855081915855, 0.06547839194536209, -0.22941061854362488, 0.021738169714808464, 0.03261904790997505, 0.0686085894703865, 0.0930824726819992, -0.1939200907945633], [0.21248677372932434, -0.035743098706007004, -0.021178610622882843, 0.08383999019861221, -0.1206974908709526, 0.12913775444030762, 0.047593966126441956, 0.09357091784477234, -0.09564638137817383, -0.16599172353744507, 0.0503634475171566, -0.0037796082906425, -0.03993568941950798, 0.2088615894317627, -0.04293842241168022, -0.16863740980625153, -0.018450282514095306, 0.12936906516551971, 0.1929738074541092, -0.03716973960399628, -0.03294507786631584, -0.07615916430950165, -0.3094279170036316, -0.10187740623950958, -0.3533064126968384, 0.06566110998392105, 0.1931498497724533, -0.08598140627145767, 0.29670608043670654, 0.13627831637859344, 0.10461440682411194, -0.14617516100406647, 0.0985034704208374, 0.059503890573978424, 0.17382001876831055, 0.05253998562693596, -0.036679621785879135, -0.08087844401597977, -0.09942342340946198, 0.11871438473463058, -0.08501987159252167, -0.18618401885032654, 0.025343768298625946, 0.09718358516693115, 0.07542546093463898, -0.020357239991426468, 0.05348416045308113, -0.15907204151153564, -0.07075617462396622, -0.08588819205760956, -0.22247792780399323, -0.16667355597019196, -0.10663218051195145, -0.21601036190986633, 0.19112205505371094, -0.12166649848222733, 0.11124499142169952, -0.07533925026655197, 0.1299985945224762, 0.028256801888346672, 0.05090700089931488, 0.04224725067615509, -0.018250400200486183, -0.020422572270035744, 0.18731458485126495, 0.11935930699110031, 0.17366334795951843, 0.03456047922372818, 0.08334969729185104, 0.03931444510817528, 0.06374190002679825, -0.01479631382972002, -0.06368707120418549, -0.023204494267702103, 0.053751226514577866, 0.03802567720413208, -0.05371527001261711, -0.06872458755970001, -0.0010626837611198425, -0.041890982538461685, -0.07067562639713287, 0.07452105730772018, -0.019327150657773018, 0.17819833755493164, 0.0826554223895073, -0.14513234794139862, 0.0044178771786391735, 0.08018132299184799, -0.05052774399518967, -0.06356289237737656, -0.17895114421844482, -0.18679635226726532, 0.07631009817123413, -0.20379142463207245, -0.08232734352350235, 0.04158245772123337, -0.1047704666852951, 0.08726156502962112, -0.045207131654024124, 0.05784725397825241, -0.09392662346363068, -0.05843805521726608, 0.289089173078537, -0.050726354122161865, -0.09123222529888153, -0.05179626867175102, 0.0603700652718544, -0.2198352813720703, -0.03403302654623985, 0.08251384645700455, -0.035686928778886795, -0.042224954813718796, -0.10477305203676224, 0.07105263322591782, 0.13711386919021606, -0.09672139585018158, -0.05767560377717018, 0.11863008141517639, -0.011829935945570469, 0.15411728620529175, -0.060829319059848785, -0.09114399552345276, -0.05879596248269081, -0.03727893903851509, 0.011208201758563519, 0.1264142245054245, 0.191624253988266, 0.09101589024066925], [-0.21901504695415497, 0.06402433663606644, 0.26293066143989563, 0.10799206793308258, 0.10080946236848831, 0.0055305021815001965, 0.049837302416563034, 0.018669050186872482, -0.10323101282119751, 0.0019694652874022722, -0.009996972046792507, -0.30346015095710754, -0.1624947041273117, -0.1711779683828354, -0.11529303342103958, 0.0638619065284729, 0.06599513441324234, -0.026012670248746872, -0.20544303953647614, 0.042243923991918564, 0.13449233770370483, 0.07084167748689651, -0.19856831431388855, 0.14796073734760284, 0.03977913036942482, 0.14089159667491913, 0.1784788966178894, 0.0020043884869664907, 0.007390801794826984, -0.08282969146966934, 0.17894026637077332, -0.09472665190696716, 0.17556817829608917, -0.1260976493358612, 0.1444663554430008, 0.26877447962760925, 0.03643174469470978, 0.014802426099777222, -0.06990712136030197, 0.0016102385707199574, -0.1931946575641632, -0.06284785270690918, -0.20130081474781036, 0.18934862315654755, 0.16503824293613434, -0.2705278992652893, 0.09541488438844681, -0.1577281951904297, -0.06192393973469734, 0.09176350384950638, -0.18534117937088013, 0.09379445761442184, -0.13567210733890533, 0.007693714462220669, -0.114361971616745, 0.12078835815191269, -0.22092276811599731, -0.13558855652809143, 0.16362498700618744, 0.15118290483951569, 0.17809325456619263, -0.026967354118824005, 0.15124812722206116, 0.0032679543364793062, 0.04240155965089798, 0.08241817355155945, 0.02919304184615612, -0.07714131474494934, -0.2410779446363449, 0.18417011201381683, -0.2648480534553528, -0.1269519329071045, -0.25812700390815735, -0.10570988059043884, -0.05788801237940788, 0.07152339071035385, 0.044078949838876724, -0.280097633600235, -0.027670789510011673, 0.009772880002856255, -0.010867186821997166, 0.018130861222743988, 0.2514520585536957, -0.1935378760099411, -0.2208571434020996, -0.022109568119049072, 0.2750993072986603, 0.05699213594198227, 0.14026327431201935, -0.3199789822101593, 0.22336259484291077, -0.17020639777183533, 0.044272515922784805, -0.1826697587966919, -0.16040384769439697, -0.07186684757471085, 0.15823449194431305, -0.1279100626707077, 0.05743017420172691, -0.322142094373703, 0.11070777475833893, -0.07662609964609146, -0.12312556803226471, -0.1486060470342636, 0.20299603044986725, 0.12166593223810196, 0.07110942900180817, -0.1554824858903885, 0.07700175791978836, 0.07900813966989517, -0.026596732437610626, -0.0597257986664772, -0.11627326905727386, -0.0905972346663475, 0.18323150277137756, 0.18397705256938934, -0.09450944513082504, 0.049809303134679794, 0.10549318790435791, -0.13568128645420074, -0.07565657049417496, -0.24945969879627228, -0.18380431830883026, 0.06298267841339111, 0.030670134350657463, 0.09931392967700958, 0.18251341581344604, -0.03809412941336632]], "fc2.bias": [-0.02892124280333519, 0.017442496493458748, 0.003381510963663459, -0.01926267519593239, 0.009565402753651142, -0.04659019783139229, -0.013152251951396465, -0.04567272216081619, 0.06842368096113205]}, "W1": [[-0.48408034443855286, -0.42273297905921936, 0.1079743281006813, -0.10596746951341629, -0.48191574215888977, -0.6035018563270569, 0.03330380469560623, -0.07437795400619507, -0.06341704726219177, -0.18386417627334595, -1.068638563156128, 0.16568902134895325, 0.2801056504249573, -1.0086637735366821, -0.31552624702453613, 0.16567952930927277, -0.274037629365921, 0.8305671215057373, 0.14787976443767548, -0.15572819113731384, 0.2919268012046814, -0.30335479974746704, 0.6341560482978821, 0.31255435943603516, -0.21362487971782684, 0.30329635739326477, 0.5619479417800903, 0.37727728486061096, -0.034870803356170654, 0.24292781949043274, -0.15022441744804382, -0.30226701498031616, -0.03270268812775612, 0.12299594283103943, -0.14673437178134918, 0.34144917130470276, 0.6569644212722778, 0.17701323330402374, -0.577526330947876, -0.14546459913253784, 0.15170983970165253, 0.02037961222231388, 0.6196775436401367, -0.13697992265224457, -0.9587440490722656, 0.2520272731781006, 0.7539627552032471, -0.07000290602445602, -0.4781669080257416, 0.45645901560783386, 0.043919820338487625, 0.3246496915817261, -1.2078746557235718, -0.5532944798469543, 0.6512552499771118, 0.27141016721725464, 0.1620853990316391, -0.31205877661705017, -0.05606332793831825, -0.38408926129341125, -0.25886860489845276, -0.07288412004709244, -0.45000237226486206, 0.1216164082288742, 0.4198016822338104, 0.7239270806312561, 0.06668421626091003, -0.4505447447299957, -0.08946998417377472, -0.1075979694724083, 0.4090670645236969, 0.4931753873825073, 0.8419297933578491, 0.42138826847076416, -0.2158595770597458, 0.5699170231819153, -0.25597915053367615, -0.5427690148353577, -0.17665906250476837, -0.12992848455905914, 0.44238391518592834, -0.9238688945770264, 0.8853438496589661, 0.23434461653232574, 0.9587804079055786, -0.056854624301195145, -0.45618829131126404, 0.8965886235237122, 0.2781924307346344, -0.2783660888671875, 0.41795051097869873, -0.3420937955379486, 0.39036762714385986, 0.10635505616664886, 0.47127217054367065, -0.5828737020492554, 0.11795641481876373, 0.250487357378006, 1.230163812637329, 0.14824669063091278, 0.5865854024887085, 0.24950170516967773, 0.55068039894104, -1.004583477973938, 0.3575911521911621, -0.2862200438976288, -0.08568043261766434, 0.3194684088230133, 0.10272392630577087, 0.16243277490139008, 0.5752293467521667, -0.16493141651153564, -0.23145468533039093, 0.8563312888145447, 0.6975699663162231, -0.5537722706794739, -0.33365702629089355, 0.1577172428369522, 0.8100542426109314, 0.17161685228347778, -0.3750438988208771, 0.35306838154792786, 0.30532169342041016, 0.5153603553771973, 0.16807134449481964, 0.4820566475391388, -0.38243407011032104, -0.3868590295314789], [-0.27132731676101685, 0.23741932213306427, -0.16272534430027008, 0.7013453245162964, -0.9095260500907898, 0.1564083695411682, -0.7221908569335938, 0.45231547951698303, 0.14349770545959473, -0.21418562531471252, -0.3281411826610565, -0.8021753430366516, 0.1429411768913269, 0.2889796495437622, -0.441975474357605, -0.3906804621219635, 0.9834639430046082, 0.009823741391301155, -0.066067174077034, -0.26417410373687744, -0.3804164230823517, -0.27112093567848206, 0.15603335201740265, -1.1240429878234863, -0.05387316271662712, 0.029904915019869804, -0.5358536839485168, -0.45744436979293823, 0.5169127583503723, 0.18319447338581085, -0.8561976552009583, 0.3696029782295227, -0.19096961617469788, -0.08324140310287476, 0.6707350015640259, -0.196979820728302, -0.9215155243873596, 0.20453135669231415, -1.058540940284729, 0.12025810033082962, -0.010906467214226723, -0.1945914328098297, 0.37419214844703674, 0.1061255931854248, 0.13867618143558502, -0.3231368362903595, -0.07594079524278641, -0.01121094822883606, -0.1657968908548355, 0.5978041887283325, 0.319488525390625, -0.5487425923347473, -0.16633780300617218, -0.25621816515922546, 1.0948874950408936, -0.47957584261894226, -0.39588141441345215, 0.43385547399520874, 0.4605889618396759, 1.4102669954299927, -0.5996497869491577, -0.004318715538829565, -0.3250550925731659, -0.45439600944519043, -0.8093670010566711, 0.23252275586128235, -0.37195295095443726, -0.1896873414516449, -0.43021926283836365, -0.9865840077400208, -0.5425743460655212, 0.1740780472755432, -0.1826486438512802, -0.22858072817325592, 0.32106879353523254, -0.14490920305252075, 0.48266080021858215, 0.12869232892990112, 0.8086858987808228, 0.1711324155330658, -0.26377272605895996, -0.7000885009765625, 0.11373079568147659, -0.7799354195594788, -0.3669167160987854, -0.26607757806777954, 0.31156352162361145, -0.20514504611492157, -0.3938432037830353, -0.3402934670448303, -0.2837514877319336, -0.4585491418838501, 0.27098894119262695, -0.0721043050289154, -0.18073225021362305, -0.37573885917663574, 0.8993234038352966, 0.08190404623746872, 1.0268158912658691, 0.42478156089782715, -0.33512523770332336, -0.2841971516609192, 0.615684986114502, -0.4762813448905945, 0.2425736039876938, 0.2988046407699585, 0.34434396028518677, 0.5662628412246704, 0.33113640546798706, -0.1716558039188385, -0.00035424521774984896, 0.5026881098747253, -0.13011877238750458, -0.38843733072280884, 0.6183854937553406, 0.031867027282714844, -0.4952266812324524, 0.5939714312553406, 0.057280588895082474, -0.945105254650116, -0.470427542924881, 0.3858300745487213, 0.017150187864899635, 0.5762854814529419, 0.2929369807243347, -0.2735648453235626, 0.28937652707099915, 0.0033215407747775316], [-0.46230974793434143, 0.23798784613609314, -0.42073366045951843, -0.2485148161649704, -0.12307772785425186, -0.7073338031768799, 0.2071046382188797, 0.33971965312957764, -0.022460808977484703, -0.20341511070728302, 0.37434476613998413, -0.27331194281578064, -0.208393394947052, -0.27071747183799744, -0.01366443745791912, -0.07133758068084717, 0.4043112099170685, -0.7890002131462097, 0.42743784189224243, -0.31262972950935364, -0.7591440081596375, 0.6077679395675659, -0.9877597689628601, -0.5327697992324829, 0.43464481830596924, -0.360300749540329, 0.15443237125873566, -0.486381471157074, 0.33010926842689514, 0.6966838240623474, -0.5595716834068298, 0.3188648223876953, 0.26311901211738586, 0.0596226342022419, 0.05686308443546295, -0.9807972311973572, -0.33947253227233887, -0.4008766710758209, -0.14102394878864288, 0.016883477568626404, 0.9749332070350647, -0.4944531321525574, 0.8637807965278625, -0.3799723982810974, -0.5121800899505615, -0.33763396739959717, 1.0369218587875366, -0.6854733228683472, 0.595715343952179, 0.6633594632148743, -0.22141626477241516, 0.30253633856773376, 0.4240821301937103, -0.17575137317180634, -0.34989187121391296, -0.45461681485176086, -0.13182541728019714, 0.3829958438873291, 0.31929364800453186, 0.2596798539161682, 0.5344643592834473, -0.33811864256858826, 0.17859718203544617, 0.6312011480331421, 0.07337886095046997, -0.1588469296693802, 0.4557849168777466, -0.3789142966270447, 0.548202395439148, -0.5034252405166626, -0.7800455093383789, -0.13976030051708221, -0.6287333369255066, 0.4073438048362732, -0.5922444462776184, 0.4776499569416046, 0.39229443669319153, 0.26984524726867676, -0.8864517211914062, -0.9108726382255554, -0.1278911828994751, 0.38433149456977844, -0.496847540140152, 0.08598600327968597, -0.1928350329399109, -0.6320269703865051, -1.0106427669525146, -0.19678734242916107, -0.39819207787513733, -0.21822866797447205, -0.8349602222442627, 0.43840691447257996, -0.4328548312187195, -0.41162022948265076, 0.2688766419887543, -0.02252231165766716, -0.21192651987075806, 0.5580596327781677, -0.5014923810958862, -0.8692396283149719, -0.6674824953079224, -0.24827060103416443, 0.446650892496109, -0.05586892366409302, 0.6980783939361572, -0.2884538471698761, -0.5291767716407776, -0.11638492345809937, 0.05277315527200699, -0.011066384613513947, 0.8238314986228943, -0.8622230291366577, 0.5991530418395996, -0.14458461105823517, -0.4398804306983948, 0.9410561323165894, -0.3705247938632965, 0.24708013236522675, -0.05029052868485451, -0.10615473985671997, 0.4107576608657837, -0.057025082409381866, -0.04430964216589928, -0.34718456864356995, 0.3048739731311798, 0.38013431429862976, 0.08828385174274445, 0.16161005198955536], [-0.09163246303796768, 0.7132940888404846, 0.6024271249771118, 0.7597044110298157, 0.2024402767419815, 0.3169344663619995, 0.04683103784918785, 0.27487048506736755, -0.1998751014471054, 0.2880856990814209, 0.2806988060474396, -0.10465174913406372, 0.15048499405384064, -0.7327802181243896, 0.18036004900932312, -0.23801247775554657, 0.12255886942148209, -0.05177304521203041, -0.542834997177124, 0.15525227785110474, 0.29685178399086, -0.1785343438386917, 0.7769811153411865, 0.2658650279045105, -0.17219826579093933, -0.23873190581798553, -0.90731281042099, -0.7172509431838989, -0.18285557627677917, 0.21205644309520721, 0.36387899518013, -0.21426859498023987, -0.3841421604156494, 0.19270969927310944, 0.6335008144378662, 0.5819271206855774, 0.24793101847171783, -0.1930745542049408, 0.23901872336864471, 0.7635995149612427, -0.39421725273132324, 0.14728456735610962, 0.3009376525878906, -0.27268722653388977, 0.26567184925079346, 0.32801350951194763, 0.19786670804023743, -0.6571086645126343, -0.06429952383041382, -0.5374128818511963, 0.050389364361763, -0.28010645508766174, -0.3224104642868042, -0.40320298075675964, 0.24508117139339447, 0.19839422404766083, 0.273640513420105, 0.1489625722169876, -0.193033367395401, 0.578953742980957, 0.36909374594688416, -0.1596389263868332, 0.5213999152183533, -0.46693485975265503, -0.6594079732894897, -0.39642027020454407, 0.09571901708841324, -0.06615499407052994, -0.8790045380592346, -0.009126394987106323, 0.0505821667611599, 0.5888296961784363, 1.0847419500350952, -0.3110853433609009, 0.4271867275238037, 0.11342264711856842, -0.5209580659866333, 0.1875920295715332, -0.37402862310409546, -0.12559060752391815, -0.24181564152240753, -0.4511753022670746, -0.4251243472099304, -0.6401768922805786, 0.12493553012609482, 0.35782164335250854, 0.24790027737617493, 0.3849402666091919, -0.44460728764533997, -0.22875745594501495, 0.19938012957572937, 0.3142716586589813, 0.2637295722961426, -0.17508432269096375, 0.056728482246398926, -0.001936672837473452, -0.13665078580379486, -0.5405970811843872, 0.0581434927880764, 0.8238946199417114, 0.3541438579559326, 0.2436448484659195, -0.5389269590377808, 0.08940742164850235, 0.1813112497329712, 0.23985299468040466, -0.014318233355879784, 0.3720652461051941, -0.08710167557001114, -0.17679348587989807, 0.32777470350265503, 0.04617905244231224, -0.15934720635414124, -0.7331666946411133, -0.2710203230381012, 0.3594190180301666, -0.45806577801704407, 0.34133827686309814, -0.13330698013305664, -0.028323547914624214, -0.207412987947464, 0.14294645190238953, 0.05770829692482948, -0.22502997517585754, -0.12938696146011353, 0.3729605972766876, -0.29270175099372864, 0.6852641701698303], [0.17146539688110352, 0.5024288296699524, -0.18323945999145508, -0.0749453455209732, -0.39050647616386414, 0.367560476064682, -0.3198346793651581, 0.06437224894762039, 0.007002988364547491, -0.3215639889240265, -0.5002986788749695, -0.7334198355674744, 0.11072366684675217, 0.22346943616867065, -0.6602213978767395, 0.8014301657676697, 0.08961693197488785, 0.12096484750509262, -0.008513686247169971, -0.008003408089280128, -0.205635666847229, -0.5444619059562683, -0.1379314363002777, 0.8560347557067871, 0.297786146402359, -0.5710803866386414, 0.5448344349861145, 0.2017609030008316, 0.36311209201812744, 0.41979333758354187, -0.04466802254319191, -0.2706480920314789, -0.2758619487285614, 1.0847326517105103, 0.5511071681976318, -0.31911495327949524, -0.3971540927886963, -0.19361738860607147, 0.37305858731269836, -0.2428208440542221, 0.7221261262893677, -0.12736281752586365, -0.1082061231136322, 0.452640175819397, -0.1779220700263977, -0.4938250780105591, -0.5667649507522583, 0.7494428157806396, 0.4609985053539276, 0.19306164979934692, -0.5085580945014954, -0.4889490306377411, -0.16164842247962952, -0.3473776578903198, 0.9133552312850952, 0.38226208090782166, 0.10379572957754135, 0.011848192662000656, 0.1652982234954834, 0.1758822649717331, -0.47597214579582214, -0.6961078643798828, 0.006531099788844585, 0.35788199305534363, -0.0889328122138977, -0.39609822630882263, -0.5722454190254211, -1.0714906454086304, -0.6654821038246155, -0.37902146577835083, -0.012067954055964947, -0.9127136468887329, -0.21186397969722748, 0.23674190044403076, -0.8464691042900085, -0.3036109507083893, -0.7569440007209778, 0.5304809808731079, 0.30015408992767334, -0.5802313089370728, -0.9943386316299438, -0.7788747549057007, 0.655200183391571, 0.22503869235515594, -0.739155113697052, 0.04400870203971863, 0.013907775282859802, 0.20170189440250397, 0.5659590363502502, 0.0324263833463192, -0.09698987752199173, 0.1490595042705536, 0.0332515649497509, 0.17486663162708282, 0.34980908036231995, 1.0941590070724487, -0.7918470501899719, 0.2906007766723633, 0.5002769827842712, 0.5360081791877747, -0.15562424063682556, 0.36547526717185974, 0.4244838356971741, 1.0934306383132935, -0.8817914724349976, -0.591000497341156, 1.2233847379684448, 0.05315360054373741, -0.7184594869613647, 0.23521991074085236, 0.6032192707061768, -0.338284432888031, 0.22683152556419373, 0.08660657703876495, 0.00504491338506341, 0.42973974347114563, 0.5412587523460388, 0.47011852264404297, -0.38573139905929565, 0.5991781949996948, -0.39400243759155273, -0.23640252649784088, 0.527875542640686, 0.3351319432258606, 0.4219542443752289, -0.5085678696632385, -0.4411049485206604, -0.015422705560922623], [-0.6762746572494507, 0.09759984165430069, -0.46243974566459656, -0.21648027002811432, 0.5794740915298462, -0.08924078196287155, -0.16373729705810547, -0.485323429107666, -0.6805039644241333, 0.017336668446660042, 0.04181588813662529, 0.46313944458961487, -0.07728134840726852, 0.3751300871372223, 0.6201258897781372, 0.020011985674500465, -0.5598312020301819, 0.40340909361839294, -0.032557304948568344, 0.03574180230498314, -0.5023193359375, 0.13685142993927002, -0.3889293670654297, -0.4429737329483032, -0.13799454271793365, 0.8341642618179321, 0.46905025839805603, -0.1807568073272705, 0.6035366058349609, 0.17415811121463776, 0.4680180251598358, 0.1274418979883194, -0.8499242067337036, 0.3669528067111969, 0.034162987023591995, -0.5054467916488647, -0.7618326544761658, 0.32757246494293213, 0.9590012431144714, -0.6175659894943237, -0.6636883616447449, 0.4698515832424164, -0.704283595085144, -0.12846635282039642, -0.04934810847043991, 0.2661013603210449, 0.3944360911846161, 0.2551363706588745, 0.43468666076660156, -0.43800610303878784, 0.2419174611568451, -0.24709713459014893, -0.12156195938587189, 0.14099346101284027, 0.34520483016967773, 0.13636209070682526, -0.6717774271965027, 0.9182091355323792, -0.24866802990436554, -0.5591821074485779, -0.2190653532743454, -0.3657923936843872, -0.48037847876548767, 0.05569835379719734, -0.114279605448246, 0.20782768726348877, -0.08477648347616196, 0.4105437397956848, 0.5650559663772583, 0.41267630457878113, -0.5401855707168579, -0.30986925959587097, 0.5586068034172058, -1.1414787769317627, 0.11165071278810501, -1.0186619758605957, -0.06442256271839142, -0.7083633542060852, -1.2583329677581787, -0.08176860213279724, -0.12057765573263168, -0.19883966445922852, 0.4019480049610138, -0.6762834787368774, -0.7292661666870117, 1.1878490447998047, -0.3953317105770111, 0.5673612356185913, -0.10935579985380173, -0.7883465886116028, 0.2615354657173157, 0.8334177732467651, -1.0439801216125488, 0.04096206650137901, -0.21967589855194092, 0.6115959882736206, -0.305414080619812, 0.48609209060668945, 0.4585352838039398, 0.16911913454532623, 0.20517012476921082, 0.010848704725503922, -0.03487560525536537, 0.5485939979553223, -0.30897095799446106, -0.04494386911392212, 0.464326947927475, 0.19825583696365356, 0.6304079294204712, -0.17868471145629883, 0.4090263545513153, -0.09463333338499069, -0.0021072854287922382, 0.14017987251281738, 0.1633991301059723, 0.12020355463027954, -0.07211698591709137, -0.9545677900314331, -0.1360337883234024, 0.28172075748443604, -0.09505245834589005, 0.3260722756385803, 0.12217778712511063, 0.47219544649124146, -0.5492180585861206, -0.43877363204956055, -0.32086512446403503, 0.6494066119194031], [0.02165280282497406, 0.7631473541259766, 0.576630175113678, 0.42694664001464844, -0.4278528392314911, -0.8314636945724487, -0.22661255300045013, -1.1766358613967896, 0.6297845244407654, 0.3772165775299072, -0.31156542897224426, 0.13352729380130768, 0.32352110743522644, 0.4544547200202942, 0.23894961178302765, -0.23475533723831177, 0.021819116547703743, -0.5856153964996338, 0.24754147231578827, -0.17612586915493011, -0.39264142513275146, -0.7414563894271851, -0.5210660099983215, 0.068447045981884, -0.6978250741958618, 0.5104189515113831, 0.06487714499235153, -0.119282566010952, 1.0097540616989136, -0.2590748071670532, -0.13019080460071564, 0.3759329915046692, 0.27092960476875305, -0.10031227767467499, -0.2820972204208374, 0.6708637475967407, 0.6009134650230408, 0.5360466837882996, -0.5340745449066162, -0.14487062394618988, 0.2765311300754547, -0.5969651937484741, -0.9247398376464844, -0.11121690273284912, 0.20614315569400787, 0.39641135931015015, 0.11853015422821045, 0.17141444981098175, 1.2073134183883667, -0.14621639251708984, -0.21810036897659302, 0.03431238979101181, 0.05778908729553223, -0.16871599853038788, -0.19264613091945648, 0.0020692322868853807, 0.2362862527370453, -0.045458197593688965, 0.42596906423568726, 0.8291464447975159, 0.2137490063905716, 0.7066810727119446, 0.3997076153755188, -0.1415373533964157, -0.04135780408978462, -0.10442081838846207, 0.609351396560669, -0.7163968086242676, -0.17919935286045074, 0.12858520448207855, 0.42209771275520325, 0.8439502716064453, 0.5302264094352722, 1.0567493438720703, 0.6424832344055176, -0.10540110617876053, 1.3338472843170166, 0.07150732725858688, 0.059990860521793365, -0.8435564637184143, -0.21887408196926117, 0.027681441977620125, 0.19803956151008606, -0.03791303560137749, 0.3767939507961273, -0.29137298464775085, 0.26064613461494446, 0.48341479897499084, 0.3240702748298645, 0.07321987301111221, 0.12161888927221298, -0.07995246350765228, 0.43636125326156616, 0.36031144857406616, -0.27474287152290344, -0.564643383026123, 0.997507631778717, 0.12633909285068512, 0.10506605356931686, -0.021667666733264923, -0.10053636878728867, -0.298058420419693, -0.23573513329029083, 0.22372175753116608, -0.0932186171412468, -0.20692119002342224, 0.3096620738506317, 0.39204925298690796, -1.1198731660842896, -0.3642677366733551, -0.33732083439826965, -0.341867059469223, -0.04390231519937515, -0.015336457639932632, 0.26613810658454895, -0.40440869331359863, -0.04808816313743591, -0.9032072424888611, 0.4127803444862366, 0.5362837910652161, -0.36815178394317627, 0.6791455745697021, 0.39291900396347046, -0.660023033618927, 0.43324849009513855, -0.21747562289237976, -0.12506961822509766, 0.9822239875793457], [0.3133200407028198, 0.07503306865692139, -0.04897473379969597, 0.5838976502418518, -0.13255168497562408, -1.0673871040344238, -0.5305436253547668, 0.5876897573471069, -0.910038948059082, 0.24456600844860077, -0.0696837529540062, 0.3205327093601227, -0.5726638436317444, 0.0868520438671112, -0.9075080752372742, 0.29388228058815, -0.3130718469619751, -0.4262217879295349, 0.35207653045654297, 0.949785590171814, 0.7474380731582642, -0.8069556951522827, -0.24327613413333893, 0.11271411180496216, 0.4524136781692505, -0.41867196559906006, 0.15326955914497375, 0.011724351905286312, 0.5137873888015747, 0.5057823061943054, 0.5072086453437805, 0.1626545935869217, -0.5099728107452393, -0.5911047458648682, -0.29131725430488586, -0.4294922649860382, 0.15513908863067627, -0.024589408189058304, -0.31442758440971375, 1.19158136844635, 0.5385276675224304, 0.8232289552688599, 0.5658146739006042, 0.06602896749973297, 0.5292484164237976, 0.14297212660312653, 0.45482727885246277, -0.020061900839209557, 0.47961530089378357, -0.4231981635093689, 0.29723772406578064, 0.48854711651802063, 0.5823951363563538, -0.42139872908592224, 0.1667226403951645, 0.09408862143754959, -0.24084791541099548, 0.5051116347312927, 0.08057914674282074, -0.11335856467485428, -0.006473675835877657, -0.294203519821167, -0.6962456703186035, -0.5333938002586365, -0.041959717869758606, -0.43239641189575195, 0.24024119973182678, -0.5678431391716003, 0.35570231080055237, -0.0809129849076271, -0.11401546001434326, 0.42440471053123474, 0.6746876239776611, -0.9099611639976501, 0.8321762084960938, 0.574601948261261, 0.8668200373649597, 0.1688779592514038, -0.09071721881628036, -0.10495779663324356, -0.17393416166305542, 0.3807775676250458, 0.3972439169883728, -0.13569429516792297, 0.5841090679168701, -0.24355024099349976, -0.3779187798500061, 0.3216976225376129, -0.3290206491947174, -0.00010442570055602118, 0.045709121972322464, 0.19019688665866852, 0.6752467751502991, -0.1408475637435913, 1.261044979095459, -0.11254996061325073, 0.11105360835790634, -0.19202563166618347, 0.7316400408744812, -0.23841962218284607, -0.1731397658586502, 0.6622787117958069, 0.6180748343467712, 0.499266654253006, 0.4923911988735199, -0.4474290907382965, -0.40329670906066895, 0.6291654109954834, -0.3711594045162201, 0.35566091537475586, 0.9619228839874268, -0.10748005658388138, 0.845098078250885, -0.46340447664260864, -0.2511461675167084, -0.15572990477085114, 0.3212597072124481, -0.2238379865884781, -0.06637439876794815, -0.12439870089292526, 0.3225720524787903, 0.8748728632926941, -0.0968063473701477, -0.03167320787906647, 0.567765474319458, 0.1119188591837883, -0.0707254558801651, 0.14820358157157898], [-0.11156826466321945, 0.03570084646344185, 0.23134934902191162, -0.03194549307227135, 0.637050449848175, 0.0928022488951683, -0.1289500743150711, 0.16466304659843445, -0.3953034579753876, -0.6778439283370972, 0.31371456384658813, 0.32619965076446533, -0.26150742173194885, -0.06607625633478165, -0.20806102454662323, 0.9364942312240601, -0.5501750707626343, 0.11334992200136185, 0.18561023473739624, 0.3304583728313446, 1.1476694345474243, 0.2928076386451721, -0.16816967725753784, 0.19154687225818634, 0.695334255695343, 0.407009482383728, -0.1850418746471405, 0.11210665851831436, 0.4541897475719452, 0.009632154367864132, -0.3730446398258209, -1.084238886833191, -0.0012745342683047056, -0.32324743270874023, -0.9727970957756042, 0.02648867666721344, -0.25428497791290283, 0.44111931324005127, -0.29649221897125244, -0.7779008746147156, 0.8075052499771118, 0.4219002425670624, -0.5663525462150574, -0.5452486872673035, 0.5142073631286621, 0.43864327669143677, 0.41853660345077515, 0.6942189931869507, 0.2964822053909302, 1.002039909362793, -0.07079054415225983, 0.4520185589790344, 0.42068320512771606, -0.38341519236564636, 0.25816455483436584, -0.030308453366160393, -0.18239593505859375, -0.6201772689819336, -0.06629883497953415, -0.3014405071735382, 0.3587286174297333, 0.8204457759857178, 0.2131241261959076, 0.07906485348939896, 1.16220223903656, 0.6886410117149353, 0.15457992255687714, -0.04537827521562576, -0.22567498683929443, 0.3308663070201874, 0.722959578037262, -0.13620930910110474, 0.30737635493278503, 0.23198233544826508, 0.035938844084739685, 0.5297473073005676, -0.48505690693855286, -0.08947054296731949, -0.2075815200805664, 0.16653035581111908, -0.24918295443058014, 0.41518890857696533, -0.6071653366088867, -0.24561664462089539, -0.6424184441566467, 0.3266165852546692, -0.2898726165294647, -0.5232388973236084, -0.37271422147750854, -0.6362249851226807, -0.23529791831970215, -0.7105278968811035, -0.18726930022239685, -0.10111250728368759, -0.3818090856075287, 0.40602630376815796, 0.2537936270236969, -0.5910159945487976, 0.7810353636741638, -0.07605618238449097, -0.764055073261261, -0.5817301273345947, -0.3415336608886719, -0.6704933643341064, -0.1748519241809845, 0.3840526342391968, -0.44626691937446594, -0.9937489628791809, -0.317759245634079, -0.49563848972320557, -0.3220423758029938, -0.6233433485031128, -0.5026950836181641, -0.1108921691775322, 0.0003340240800753236, -0.7099022269248962, 0.5007357597351074, -0.16879773139953613, -0.12895719707012177, -0.1761545091867447, 0.1917574405670166, 0.22599250078201294, 0.059854768216609955, -0.18067149817943573, -0.48470205068588257, -0.06363505870103836, 0.5955367684364319, 0.3704013228416443]], "b1": [-0.017083069309592247, -0.0021952360402792692, -0.005249910056591034, 0.0591285303235054, 0.04766625910997391, -0.03922533616423607, -0.023975852876901627, -0.030521443113684654, -0.006680693943053484, 0.07537293434143066, -0.04840295761823654, -0.017895150929689407, -0.0500187911093235, -0.015242422930896282, -0.045710429549217224, 0.14394354820251465, 0.016737377271056175, 0.005657061003148556, 0.000720235169865191, 0.02591993287205696, 0.0008107174653559923, 0.08869535475969315, -0.017539551481604576, -0.08924517780542374, 0.02421322464942932, 0.010297613218426704, -0.01210365816950798, -0.05461476370692253, 0.11264318227767944, -0.003225090214982629, 0.041127175092697144, -0.0026983029674738646, 0.007797584403306246, -0.10042443871498108, -0.019452214241027832, -0.0173430684953928, 0.0025676614604890347, -0.026502981781959534, -0.08955682069063187, -0.03502912074327469, 0.15045328438282013, -0.03817044943571091, -0.1182747408747673, -0.060498181730508804, -0.0113564133644104, 0.007234637159854174, 0.04388710483908653, 0.08190447092056274, 0.057407304644584656, -0.029596276581287384, -0.030684342607855797, 0.03212361037731171, -0.028068263083696365, 0.04170586168766022, -0.04254431650042534, 0.02151072956621647, -0.042036108672618866, -0.06837446987628937, 0.03876650333404541, 0.049448732286691666, -0.0062795365229249, -0.08162575960159302, 0.0006603754009120166, -0.10151368379592896, 0.08478996157646179, 0.00853318814188242, -0.03162872791290283, -0.0035778472665697336, -0.08528037369251251, 0.013295297510921955, -0.03324691206216812, -0.01349011342972517, 0.015940485522150993, 0.06295845657587051, 0.020960910245776176, -0.014476839452981949, -0.0976378470659256, 0.031697675585746765, -0.008706302382051945, -0.05057390034198761, 0.021953122690320015, 0.06416542828083038, -0.027515292167663574, 0.026306021958589554, -0.06457745283842087, -0.021508030593395233, -0.04349912703037262, 0.027165528386831284, 0.08288492262363434, -0.07527612149715424, 0.060198213905096054, 0.001638001762330532, 0.023307813331484795, 0.02635280042886734, 0.026711352169513702, -0.05095397308468819, 0.06032733619213104, -0.025487540289759636, -0.06860392540693283, -0.051478542387485504, 0.11725224554538727, 0.03443339839577675, 0.08058080077171326, 0.07440964132547379, 0.026998210698366165, 0.04648470878601074, -0.13570518791675568, 0.006918196566402912, -0.055622003972530365, 0.006384474225342274, -0.055094629526138306, 0.03036388009786606, -0.07068246603012085, 0.07670100778341293, 4.556820204015821e-05, -0.0914483591914177, -0.04518326371908188, -0.007897145114839077, -0.0023103884886950254, -0.06262072175741196, 0.002063574967905879, -0.004626474343240261, 0.009260032325983047, 0.09067768603563309, -0.04710907116532326, -0.03518564626574516, 0.034752942621707916, -0.016499551013112068], "W2": [[0.15956267714500427, -0.09236829727888107, -0.36133164167404175, 0.1147817075252533, -0.10315249860286713, -0.09063629806041718, -0.09493574500083923, 0.21248677372932434, -0.21901504695415497], [0.0004899717168882489, -0.07995547354221344, 0.017974935472011566, -0.1404678076505661, 0.023226402699947357, -0.16028426587581635, 0.019212080165743828, -0.035743098706007004, 0.06402433663606644], [0.07851903885602951, 0.015778403729200363, 0.025697702541947365, 0.08238018304109573, -0.1555386781692505, -0.1257270872592926, 0.012083005160093307, -0.021178610622882843, 0.26293066143989563], [-0.00046044864575378597, 0.040853068232536316, 0.004544680472463369, -0.08126289397478104, 0.322884202003479, -0.0172057393938303, -0.11556757986545563, 0.08383999019861221, 0.10799206793308258], [0.021974025294184685, 0.0835903137922287, 0.09333375096321106, 0.28498393297195435, -0.15434503555297852, -0.23488779366016388, -0.026033205911517143, -0.1206974908709526, 0.10080946236848831], [-0.05223874747753143, 0.10485835373401642, 0.0913405567407608, 0.09870798140764236, -0.07268667221069336, 0.13707563281059265, -0.05837279185652733, 0.12913775444030762, 0.0055305021815001965], [0.06687580794095993, 0.31566739082336426, 0.010868841782212257, 0.11020392924547195, -0.06242856755852699, -0.02303982712328434, -0.0034803603775799274, 0.047593966126441956, 0.049837302416563034], [0.08059381693601608, 0.16600802540779114, 0.04298415407538414, 0.05997921898961067, -0.17837131023406982, -0.0743803158402443, -0.21751432120800018, 0.09357091784477234, 0.018669050186872482], [-4.601648834068328e-05, -0.11176104098558426, 0.0054346113465726376, -0.11064214259386063, 0.2507840394973755, -0.1294798105955124, -0.09148319065570831, -0.09564638137817383, -0.10323101282119751], [-0.11465539038181305, -0.035770632326602936, 0.07214097678661346, -0.029414692893624306, 0.018157634884119034, -0.09349660575389862, 0.030705997720360756, -0.16599172353744507, 0.0019694652874022722], [-0.03123198077082634, 0.02901112660765648, -0.04587768763303757, 0.011731944046914577, -0.13376444578170776, 0.0007241564453579485, 0.14683806896209717, 0.0503634475171566, -0.009996972046792507], [0.04923192039132118, 0.170675590634346, 0.1747763305902481, -0.021074609830975533, -0.21904024481773376, -0.02980056032538414, 0.022921357303857803, -0.0037796082906425, -0.30346015095710754], [0.027309583500027657, 0.0015845594462007284, 0.06430892646312714, 0.06994394958019257, -0.18129891157150269, -0.0035705543123185635, 0.10078216344118118, -0.03993568941950798, -0.1624947041273117], [0.13260456919670105, 0.030414843931794167, 0.04290904477238655, -0.20069687068462372, 0.09759505093097687, -0.19394636154174805, 0.11822393536567688, 0.2088615894317627, -0.1711779683828354], [-0.08074189722537994, -0.11406207084655762, -0.1412951499223709, 0.11976541578769684, -0.06242970749735832, 0.25964686274528503, 0.1626138836145401, -0.04293842241168022, -0.11529303342103958], [-0.0382508784532547, 0.0296111311763525, -0.2582460641860962, -0.13024163246154785, -0.18711437284946442, 0.1704254001379013, -0.12685035169124603, -0.16863740980625153, 0.0638619065284729], [0.011960145086050034, -0.16755032539367676, -0.27965158224105835, 0.08416227251291275, -0.07742315530776978, 0.05215108394622803, -0.014483161270618439, -0.018450282514095306, 0.06599513441324234], [0.10183756798505783, -0.0615185983479023, -0.030808672308921814, 0.21703803539276123, -0.0014667701907455921, 0.040804531425237656, -0.13960836827754974, 0.12936906516551971, -0.026012670248746872], [0.11289218068122864, -0.00045506373862735927, -0.05554276332259178, 0.05711042881011963, 0.18238183856010437, 0.05474855750799179, -0.273570716381073, 0.1929738074541092, -0.20544303953647614], [-0.05114167556166649, -0.0906238928437233, 0.05115578696131706, -0.03694942966103554, 0.1122150868177414, 0.11732041835784912, -0.10205444693565369, -0.03716973960399628, 0.042243923991918564], [-0.11335187405347824, 0.062389593571424484, 0.1823454052209854, -0.049167945981025696, -0.06977120041847229, -0.014806550927460194, 0.09300628304481506, -0.03294507786631584, 0.13449233770370483], [-0.04190211370587349, -0.18227417767047882, -0.04301565885543823, -0.09206898510456085, 0.0030362072866410017, 0.2284729927778244, 0.28804948925971985, -0.07615916430950165, 0.07084167748689651], [0.07279953360557556, -0.08956900238990784, 0.10535257309675217, -0.12776218354701996, 0.08317158371210098, 0.05481036752462387, -0.06503703445196152, -0.3094279170036316, -0.19856831431388855], [0.037394315004348755, -0.09101822227239609, 0.04526625946164131, 0.1152944415807724, 0.0814860537648201, 0.08267269283533096, -0.1768731027841568, -0.10187740623950958, 0.14796073734760284], [-0.09262926131486893, -0.09930547326803207, -0.024448079988360405, -0.025307221338152885, -0.040721967816352844, 0.22922413051128387, 0.03435740992426872, -0.3533064126968384, 0.03977913036942482], [0.2176114171743393, -0.02788412943482399, -0.23046565055847168, 0.1299322545528412, 0.2005959004163742, 0.15317173302173615, -0.05683636665344238, 0.06566110998392105, 0.14089159667491913], [-0.23989522457122803, 0.06623139977455139, -0.017521489411592484, 0.20666852593421936, -0.27350321412086487, 0.11297399550676346, 0.15428301692008972, 0.1931498497724533, 0.1784788966178894], [-0.039248254150152206, -0.143300399184227, 0.07420621067285538, -0.01116249430924654, 0.16815637052059174, 0.0958574190735817, 0.07232269644737244, -0.08598140627145767, 0.0020043884869664907], [0.045607440173625946, -0.05334696173667908, -0.36367690563201904, -0.19881153106689453, -0.18045315146446228, 0.11439898610115051, 0.1731964349746704, 0.29670608043670654, 0.007390801794826984], [0.003671916900202632, -0.011447860859334469, -0.20726577937602997, -0.29887139797210693, -0.10566641390323639, -0.05741128325462341, 0.07009918987751007, 0.13627831637859344, -0.08282969146966934], [0.023157592862844467, 0.0056013381108641624, 0.11043950170278549, 0.08751578629016876, 0.15640011429786682, 0.024598632007837296, -0.19211529195308685, 0.10461440682411194, 0.17894026637077332], [-0.054394714534282684, 0.048857588320970535, 0.07350248098373413, 0.002260265639051795, 0.016630426049232483, -0.1274089217185974, -0.0728946253657341, -0.14617516100406647, -0.09472665190696716], [0.23473075032234192, 0.04630802199244499, -0.0679435059428215, 0.2501165568828583, -0.05258908495306969, 0.21857544779777527, 0.06451888382434845, 0.0985034704208374, 0.17556817829608917], [-0.27414608001708984, -0.13252057135105133, -0.04062829539179802, 0.21169953048229218, 0.0462498739361763, 0.05151722580194473, -0.030564628541469574, 0.059503890573978424, -0.1260976493358612], [-0.37607309222221375, 0.020677562803030014, -0.062457695603370667, 0.12596602737903595, -0.0890071913599968, -0.022845247760415077, 0.09593953937292099, 0.17382001876831055, 0.1444663554430008], [-0.13457359373569489, -0.002397929783910513, 0.03264745697379112, 0.22964926064014435, -0.04238799586892128, 0.02757536992430687, 0.036025892943143845, 0.05253998562693596, 0.26877447962760925], [-0.03391069918870926, 0.037400152534246445, 0.2778857946395874, 0.30605289340019226, -0.16377553343772888, 0.09013662487268448, 0.05294337123632431, -0.036679621785879135, 0.03643174469470978], [0.031337231397628784, -0.09149035811424255, -0.10408379882574081, -0.11312215775251389, -0.02518724463880062, -0.045148562639951706, 0.27274948358535767, -0.08087844401597977, 0.014802426099777222], [-0.07016763091087341, -0.26486992835998535, -0.15979218482971191, 0.09031596034765244, -0.09906554222106934, 0.25694113969802856, 0.010498829185962677, -0.09942342340946198, -0.06990712136030197], [-0.082355797290802, 0.1339617371559143, -0.012329529970884323, -0.1795172095298767, -0.12608204782009125, 0.12757323682308197, -0.12692198157310486, 0.11871438473463058, 0.0016102385707199574], [0.0209481380879879, -0.04067562147974968, -0.029280710965394974, 0.3524987995624542, -0.22822533547878265, -0.054650016129016876, 0.020916227251291275, -0.08501987159252167, -0.1931946575641632], [-0.08899577707052231, 0.011961540207266808, -0.15568281710147858, 0.11473465710878372, -0.02979322522878647, -0.026868287473917007, 0.105439193546772, -0.18618401885032654, -0.06284785270690918], [-0.1328059583902359, -0.03977551683783531, -0.039099469780921936, 0.10254234820604324, 0.0752793624997139, -0.17678716778755188, -0.07032596319913864, 0.025343768298625946, -0.20130081474781036], [0.0591646246612072, -0.06209570914506912, -0.017673717811703682, -0.22510753571987152, -0.024540578946471214, -0.14293962717056274, 0.08267523348331451, 0.09718358516693115, 0.18934862315654755], [0.08989021182060242, -0.10235422104597092, 0.15391387045383453, -0.08847643435001373, -0.0031946790404617786, 0.03154437616467476, 0.01886143907904625, 0.07542546093463898, 0.16503824293613434], [-0.20615391433238983, 0.024342980235815048, 0.0494813546538353, -0.05774259939789772, -0.03917719051241875, -0.09827876091003418, -0.018455268815159798, -0.020357239991426468, -0.2705278992652893], [-0.06851010769605637, 0.06326339393854141, 0.0997600182890892, -0.03245515748858452, -0.05414630100131035, 0.140597864985466, 0.1498783677816391, 0.05348416045308113, 0.09541488438844681], [0.07592842727899551, 0.20318444073200226, -0.1260412186384201, -0.029040774330496788, 0.062366556376218796, -0.20102261006832123, 0.08594561368227005, -0.15907204151153564, -0.1577281951904297], [-0.002588450675830245, 0.20841851830482483, 0.023963328450918198, 0.09879086911678314, -0.2011411190032959, -0.05785471946001053, 0.1491207629442215, -0.07075617462396622, -0.06192393973469734], [0.017262529581785202, -0.060922522097826004, 0.05381084978580475, 0.052267007529735565, 0.05082760006189346, 0.0726594477891922, 0.07856961339712143, -0.08588819205760956, 0.09176350384950638], [0.09668607264757156, -0.12093771249055862, 0.0026615229435265064, -0.07958328723907471, 0.2791571617126465, -0.17840582132339478, 0.15695875883102417, -0.22247792780399323, -0.18534117937088013], [0.1299370676279068, -0.0513741597533226, 0.15092651546001434, -0.10627441108226776, 0.06151193380355835, -0.18075411021709442, -0.3023674488067627, -0.16667355597019196, 0.09379445761442184], [-0.012461778707802296, 0.0010896924650296569, 0.18761152029037476, 0.16083157062530518, 0.03351633995771408, -0.007307758089154959, -0.012734523043036461, -0.10663218051195145, -0.13567210733890533], [0.012251024134457111, 0.19542989134788513, 0.028042705729603767, 0.062091171741485596, -0.03531012684106827, 0.07423529028892517, 0.09386424720287323, -0.21601036190986633, 0.007693714462220669], [0.11289280652999878, -0.21879784762859344, -0.30443087220191956, -0.0803028866648674, -0.09678468108177185, -0.05050674453377724, 0.054634612053632736, 0.19112205505371094, -0.114361971616745], [0.1256713569164276, -0.2897556722164154, 0.06655453145503998, 0.08234576880931854, -0.04932773858308792, -0.03203970193862915, -0.023732801899313927, -0.12166649848222733, 0.12078835815191269], [-0.08331263810396194, 0.05962914600968361, -0.3190647065639496, 0.08118836581707001, -0.09265295416116714, 0.08638551831245422, -0.0547657273709774, 0.11124499142169952, -0.22092276811599731], [-0.10922536998987198, -0.030367538332939148, 0.11541678011417389, -0.029341770336031914, 0.0961078479886055, 0.017885297536849976, 0.11935965716838837, -0.07533925026655197, -0.13558855652809143], [0.05956955999135971, -0.015930036082863808, -0.13422180712223053, -0.0436692014336586, -0.02307520993053913, 0.2524631917476654, -0.24257583916187286, 0.1299985945224762, 0.16362498700618744], [-0.10539770871400833, 0.02834564447402954, -0.08536778390407562, -0.0972854346036911, 0.16233058273792267, 0.024330686777830124, 0.009355966933071613, 0.028256801888346672, 0.15118290483951569], [0.016684316098690033, 0.03568558767437935, -0.01216823235154152, -0.2639210522174835, 0.1014891043305397, 0.17858701944351196, -0.08960779756307602, 0.05090700089931488, 0.17809325456619263], [-0.21421842277050018, 0.0968407690525055, 0.07873986661434174, 0.022837020456790924, -0.2498624324798584, -0.06521708518266678, 0.04502757638692856, 0.04224725067615509, -0.026967354118824005], [-0.1278708279132843, 0.3100128173828125, -0.040152594447135925, 0.19436460733413696, 0.04724014550447464, 0.04103031009435654, -0.34236615896224976, -0.018250400200486183, 0.15124812722206116], [-0.06371422857046127, 0.11760557442903519, 0.06056099757552147, -0.050030652433633804, 0.08653151988983154, -0.09506580978631973, -0.055225640535354614, -0.020422572270035744, 0.0032679543364793062], [-0.07517208904027939, 0.12077470868825912, -0.06307502090930939, 0.11885423958301544, -0.1002546027302742, 0.4148494005203247, -0.05091892182826996, 0.18731458485126495, 0.04240155965089798], [-0.15243300795555115, 0.27184396982192993, 0.016768289729952812, 0.06625720113515854, 0.06649550050497055, 0.20496314764022827, 0.2621634900569916, 0.11935930699110031, 0.08241817355155945], [0.19180689752101898, -0.25205039978027344, 0.028837338089942932, 0.08623495697975159, -0.006947688292711973, 0.16555237770080566, 0.026928171515464783, 0.17366334795951843, 0.02919304184615612], [0.06521004438400269, -0.18836554884910583, -0.06853404641151428, -0.08958292007446289, 0.1571134775876999, -0.32450148463249207, -0.03958424925804138, 0.03456047922372818, -0.07714131474494934], [0.10185926407575607, 0.19892190396785736, -0.13478027284145355, -0.09173993766307831, 0.24622033536434174, -0.09978216886520386, 0.047531966120004654, 0.08334969729185104, -0.2410779446363449], [-0.07029739767313004, -0.06463746726512909, -0.0008937451639212668, -0.2503957152366638, 0.019107799977064133, -0.017864175140857697, 0.2167937308549881, 0.03931444510817528, 0.18417011201381683], [0.12755902111530304, 0.006230664439499378, -0.16349267959594727, -0.06698192656040192, 0.08995285630226135, 0.1471521258354187, -0.0981556698679924, 0.06374190002679825, -0.2648480534553528], [0.04555148631334305, -0.08652370423078537, -0.05400606617331505, 0.0484730564057827, 0.037704892456531525, -0.09652422368526459, -0.11892049014568329, -0.01479631382972002, -0.1269519329071045], [0.061565011739730835, -0.3386490046977997, 0.04272868111729622, -0.0854424312710762, -0.07018573582172394, 0.052185554057359695, -0.16957508027553558, -0.06368707120418549, -0.25812700390815735], [-0.17480604350566864, -0.11017805337905884, -0.4602532982826233, -0.08652735501527786, -0.14271022379398346, -0.21012431383132935, 0.04614613577723503, -0.023204494267702103, -0.10570988059043884], [0.024001779034733772, -0.2464016228914261, 0.09114005416631699, -0.25188136100769043, -0.07483822852373123, -0.21200689673423767, -0.10578028857707977, 0.053751226514577866, -0.05788801237940788], [0.14912310242652893, 0.10682167112827301, 0.06673625856637955, 0.2279057651758194, -0.001545085571706295, 0.14727520942687988, -0.0012423626612871885, 0.03802567720413208, 0.07152339071035385], [0.025410033762454987, -0.16974776983261108, 0.05789250507950783, 0.059310246258974075, 0.10966011881828308, 0.02777016907930374, -0.12082526832818985, -0.05371527001261711, 0.044078949838876724], [0.00836564227938652, -0.061183471232652664, -0.07937701046466827, 0.05637696012854576, -0.07350847125053406, -0.0017152727814391255, 0.04179142415523529, -0.06872458755970001, -0.280097633600235], [-0.035257115960121155, 0.12759163975715637, 0.06019721180200577, -0.14900755882263184, -0.17779754102230072, 0.07489483803510666, -0.04884684085845947, -0.0010626837611198425, -0.027670789510011673], [-0.020678864791989326, 0.1162593737244606, -0.2040446549654007, -0.034522250294685364, 0.17414449155330658, 0.011445363983511925, -0.04558609798550606, -0.041890982538461685, 0.009772880002856255], [-0.15699391067028046, -0.0688868835568428, 0.21820096671581268, -0.1327809989452362, 0.0641854926943779, -0.2695450484752655, 0.08640088886022568, -0.07067562639713287, -0.010867186821997166], [0.1242946982383728, -0.06603676080703735, 0.11423392593860626, -0.13127531111240387, 0.03448303043842316, -0.13936182856559753, 0.05170290917158127, 0.07452105730772018, 0.018130861222743988], [-0.026745744049549103, 0.08868736773729324, -0.12579314410686493, 0.0887184664607048, -0.017290376126766205, 0.03955871984362602, 0.07147703319787979, -0.019327150657773018, 0.2514520585536957], [0.14540952444076538, -0.011041567660868168, 0.13815972208976746, -0.10124071687459946, -0.200125589966774, -0.04313455522060394, -0.06244294345378876, 0.17819833755493164, -0.1935378760099411], [0.030741684138774872, 0.0233949963003397, 0.057124823331832886, 0.157762348651886, 0.009131522849202156, 0.12324420362710953, 0.12614072859287262, 0.0826554223895073, -0.2208571434020996], [0.15957804024219513, -0.23895369470119476, -0.15788590908050537, -0.0746845006942749, 0.00637382548302412, 0.06150983273983002, 0.02022848278284073, -0.14513234794139862, -0.022109568119049072], [-0.08727316558361053, 0.020928939804434776, 0.1321876049041748, 0.13977354764938354, 0.17580750584602356, 0.04783850163221359, -0.032344985753297806, 0.0044178771786391735, 0.2750993072986603], [0.06036267802119255, -0.1768224984407425, -0.031499508768320084, -0.07577911019325256, -0.12913578748703003, -0.07671545445919037, -0.060650553554296494, 0.08018132299184799, 0.05699213594198227], [0.2250939905643463, 0.14813488721847534, -0.21030770242214203, -0.03251462057232857, -0.229025736451149, 0.1348925232887268, 0.08472767472267151, -0.05052774399518967, 0.14026327431201935], [-0.050919804722070694, 0.14512546360492706, 0.06675170361995697, 0.038904666900634766, 0.04212464019656181, -0.014282195828855038, 0.08342289179563522, -0.06356289237737656, -0.3199789822101593], [0.11369927227497101, 0.10347559303045273, -0.024272285401821136, -0.1782759726047516, 0.12218086421489716, -0.10221900045871735, -0.15408562123775482, -0.17895114421844482, 0.22336259484291077], [0.0012525282800197601, -0.08597198873758316, -0.12655602395534515, -0.1168881207704544, 0.08917362987995148, -0.09151503443717957, -0.11141414195299149, -0.18679635226726532, -0.17020639777183533], [0.11338911205530167, 0.01696997508406639, 0.03415815532207489, 0.09828491508960724, 0.2076687216758728, 0.08463394641876221, -0.2224770188331604, 0.07631009817123413, 0.044272515922784805], [0.02781270071864128, 0.06889605522155762, -0.1668592095375061, 0.2049580216407776, -0.1915145069360733, 0.004440788645297289, 0.04986083135008812, -0.20379142463207245, -0.1826697587966919], [0.11440231651067734, -0.037574607878923416, 0.08807693421840668, -0.17193572223186493, -0.1630474030971527, 0.03731003403663635, -0.17470358312129974, -0.08232734352350235, -0.16040384769439697], [-0.020657848566770554, -0.03677517548203468, 0.054378360509872437, 0.07631820440292358, 0.10418029129505157, 0.015228700824081898, -0.1241941899061203, 0.04158245772123337, -0.07186684757471085], [0.1372593343257904, 0.21983136236667633, -0.2926824390888214, -0.09050681442022324, -0.19906608760356903, -0.06186039373278618, 0.07778480648994446, -0.1047704666852951, 0.15823449194431305], [0.15520085394382477, 0.1123681515455246, -0.1412375420331955, 0.26923495531082153, 0.11150339990854263, 0.1621493697166443, -0.08233731985092163, 0.08726156502962112, -0.1279100626707077], [0.04917946457862854, -0.22280853986740112, -0.06528665125370026, -0.10931738466024399, 0.0007241591229103506, -0.10169067978858948, 0.20453670620918274, -0.045207131654024124, 0.05743017420172691], [-0.09073083102703094, 0.05774527043104172, -0.23707926273345947, 0.04646822437644005, 0.14552268385887146, 0.04440874978899956, 0.11486313492059708, 0.05784725397825241, -0.322142094373703], [0.011349661275744438, -0.07006380707025528, 0.0969269797205925, 0.12118657678365707, -0.015360496006906033, 0.1382562816143036, -0.07897798717021942, -0.09392662346363068, 0.11070777475833893], [-0.09771620482206345, 0.18082298338413239, 0.3291645646095276, -0.17933279275894165, 0.21369516849517822, -0.03349129855632782, 0.0003595749440137297, -0.05843805521726608, -0.07662609964609146], [0.2652517259120941, -0.02021038345992565, -0.08603104948997498, -0.12853677570819855, -0.02210276946425438, 0.09584158658981323, 0.1808769404888153, 0.289089173078537, -0.12312556803226471], [-0.08602739870548248, 0.11710015684366226, -0.10053601861000061, 0.14839468896389008, 0.0948338583111763, 0.022828150540590286, 0.02444993518292904, -0.050726354122161865, -0.1486060470342636], [-0.12004570662975311, -0.13231849670410156, -0.3277527391910553, 